function [y1] = task_1_ii(x1)
%MYNEURALNETWORKFUNCTION neural network simulation function.
%
% Auto-generated by MATLAB, 29-Aug-2021 15:22:34.
%
% [y1] = myNeuralNetworkFunction(x1) takes these arguments:
%   x = 166xQ matrix, input #1
% and returns:
%   y = 1xQ matrix, output #1
% where Q is the number of samples.

%#ok<*RPMT0>

% ===== NEURAL NETWORK CONSTANTS =====

% Input 1
x1_step1.xoffset = [-31;-199;-167;-114;-118;-183;-171;-225;-245;-286;-328;-321;-305;-342;-294;-327;-224;-308;-286;-252;-295;-185;-253;-76;-100;-242;-205;-166;-142;-162;-117;-143;-139;-279;-160;-7;-175;-190;-148;-180;-188;-150;-295;-343;-310;-340;-159;-290;-265;-279;-326;-206;-206;-147;-112;-279;-170;-178;-172;-250;-102;-196;-100;-195;-165;-9;-167;-195;-134;-191;-174;-152;-324;-333;-274;-195;-259;-313;-306;-202;-255;-175;-299;-98;-220;-203;-207;-213;-111;-157;-202;-16;-125;-328;-119;-69;-191;-190;-157;-156;-209;-33;-299;-324;-319;-284;-200;-292;-249;-291;-250;-266;-224;-204;-250;-257;-103;-212;-196;-201;-121;-117;-129;-127;-144;-69;-286;-221;-307;-189;-123;-140;-319;-338;-336;-196;-197;-199;-243;-283;-290;-185;-157;-171;-179;-106;-136;-200;-213;-190;-140;-128;-114;-173;-143;-198;-257;-328;-219;-136;-120;-69;73;-289;-428;-471];
x1_step1.gain = [0.00619195046439629;0.00680272108843537;0.00806451612903226;0.00727272727272727;0.00451467268623025;0.00522193211488251;0.0051150895140665;0.0036697247706422;0.00510204081632653;0.00386847195357834;0.00396825396825397;0.00396039603960396;0.004;0.004;0.00429184549356223;0.00491400491400491;0.00552486187845304;0.00402414486921529;0.00391389432485323;0.00417536534446764;0.00408997955010225;0.00533333333333333;0.00429184549356223;0.00508905852417303;0.00530503978779841;0.00470588235294118;0.00542005420054201;0.00643086816720257;0.00632911392405063;0.00467289719626168;0.00469483568075117;0.00441501103752759;0.00578034682080925;0.00455580865603645;0.00526315789473684;0.00604229607250755;0.0062111801242236;0.00530503978779841;0.00784313725490196;0.0053475935828877;0.00719424460431655;0.00386847195357834;0.00384615384615385;0.00369685767097967;0.00437636761487965;0.00399201596806387;0.00743494423791822;0.00426439232409382;0.00371747211895911;0.00404858299595142;0.00401606425702811;0.00522193211488251;0.00533333333333333;0.004149377593361;0.005249343832021;0.00405679513184584;0.0050125313283208;0.00687285223367698;0.00537634408602151;0.00444444444444444;0.00561797752808989;0.00531914893617021;0.00520833333333333;0.00476190476190476;0.0072202166064982;0.00617283950617284;0.00498753117206983;0.00581395348837209;0.00546448087431694;0.00573065902578797;0.00769230769230769;0.00796812749003984;0.00396039603960396;0.00396039603960396;0.00419287211740042;0.00925925925925926;0.00481927710843374;0.00364963503649635;0.00400801603206413;0.00391389432485323;0.00441501103752759;0.00531914893617021;0.00421940928270042;0.00539083557951483;0.00484261501210654;0.00503778337531486;0.00632911392405063;0.00519480519480519;0.00760456273764259;0.00469483568075117;0.0045766590389016;0.0062111801242236;0.00574712643678161;0.00390625;0.00560224089635854;0.00480769230769231;0.00561797752808989;0.00508905852417303;0.0101522842639594;0.00508905852417303;0.00666666666666667;0.005249343832021;0.00423728813559322;0.00388349514563107;0.00422832980972516;0.00403225806451613;0.00557103064066852;0.00435729847494553;0.0044543429844098;0.00462962962962963;0.00435729847494553;0.00416666666666667;0.00478468899521531;0.00520833333333333;0.00429184549356223;0.00392156862745098;0.00478468899521531;0.00543478260869565;0.00493827160493827;0.0056657223796034;0.00515463917525773;0.00533333333333333;0.00493827160493827;0.00564971751412429;0.00451467268623025;0.00530503978779841;0.00396039603960396;0.00432900432900433;0.00389863547758285;0.00643086816720257;0.00495049504950495;0.00506329113924051;0.00404040404040404;0.00394477317554241;0.0036036036036036;0.00623052959501558;0.00522193211488251;0.0060790273556231;0.00449438202247191;0.00411522633744856;0.00418410041841004;0.00542005420054201;0.00505050505050505;0.00527704485488127;0.00510204081632653;0.00544959128065395;0.00649350649350649;0.00606060606060606;0.00606060606060606;0.00533333333333333;0.00520833333333333;0.00711743772241993;0.00615384615384615;0.0068259385665529;0.00383141762452107;0.0056980056980057;0.00497512437810945;0.004739336492891;0.0050251256281407;0.00609756097560976;0.00376647834274953;0.00471698113207547;0.0036231884057971;0.00342465753424658;0.00335570469798658;0.00238663484486874];
x1_step1.ymin = -1;

% Layer 1
b1 = [-1.6445591539727337782;1.331666340367097634;-1.3544423052963419085;-1.2641552533569000438;-1.1585860747431757645;0.99289879163347172231;-1.2798153420127325042;0.7018919162069665596;0.92804843230016775824;0.90309558982862303544;-0.99644256269356046296;-0.54888810041873703494;0.8487442632822891353;-0.49214475452459205407;0.54595181832034578306;0.52293428336374103704;-0.79560805352011731983;0.34882306389950573644;0.32998482245570226468;-0.38617325387374124013;-0.28016494595055102534;0.209489963835009535;-0.2422989722218523434;-0.064111384471463556123;0.03078039181363648874;-0.40359474639515041661;-0.058343640421357256809;0.30751623891407686706;0.40768102509247705623;0.033828414575874772574;-0.40260264734673545384;-0.88467582513350007112;-0.59131599245335819681;0.49734760080242018665;-0.25267257268299886386;0.4616458675308045545;0.78252941877390502778;-0.64886020322253845638;-0.80674276399737443466;1.0797695300779917016;0.95968628865790761573;-0.69558497474897995616;-1.0752681089771580769;1.0322635300859890339;-1.4834862046638568334;1.1687084747909863847;-1.5638794517178999932;1.275953607852904792;-1.4220193812099877206;-1.4286490648862217867];
IW1_1 = [0.13899382472739682526 -0.15640785679818414167 0.39157978461070475085 -0.32787186840851761938 0.032746766896146382864 0.21590405917515240186 0.1364659956388767359 0.042052400056993621824 -0.16954978844135412674 -0.18017455756625846974 0.01950597659639641962 0.03947875955488572286 -0.14871572531642507364 -0.14167546013729787058 0.097974899398698134245 -0.0185486992240674331 -0.049777037718673533551 -0.1371161840628998263 0.21324155782492626443 -0.0089127379009158562428 -0.17698493930418837672 0.063285411414977954525 -0.2653921019302130091 -0.048420059825611969084 -0.030933134618880482603 -0.0017769839606168354174 -0.11400753933320262323 0.068077463450903916153 -0.19864252534672838246 -0.18092746632037934318 0.031863299487905241691 0.090163422110012519939 -0.1614777253620100772 0.10455153779811254822 0.16488406285729118039 0.0065905935986655490508 -0.39077531575282931087 -0.052691911501799443274 -0.18821166315209469921 0.10762377279789708817 -0.22228227749888607168 0.24114891884918371323 -0.031285685170825895673 -0.081921386869187942659 0.079135628803004093301 -0.050940664177302759363 -0.046566498495785063616 -0.17482167143491159078 0.19328196803444672169 0.038777951157356660428 -0.30560159965743272092 -0.19452909854789302013 0.14180518492416332998 0.014710110441569760123 0.1769657591201394542 -0.56449023497882189204 0.077694468345280695565 -0.21685999447300563503 -0.34532541218599505095 0.025583488221430111809 0.047974645380356631397 -0.10644114337963629657 0.27874793140408904435 -0.12696618447978552657 0.050364553199099333647 0.13748423700850434526 0.15533220526311120047 -0.38930253926301311429 -0.32984293043411727631 -0.24678487140815316692 0.26902934363383002037 -0.19522198646910793318 -0.37038071649694509491 0.027889029966490463258 -0.044612125414436723525 0.14394945136367404137 0.3698988257630294596 0.0013595207242431293568 -0.0013284299807115994979 0.14266545345897221897 -0.19050215941626724714 0.067118271474774005014 0.019112013818777230656 -0.78762310540494584465 -0.12130899669940162222 0.0093506833632064061818 0.1006581517552085081 0.10106781363980350819 -0.20712746533078035815 -0.31819463138997827745 0.28310758237967853512 -0.11291497749510692739 0.21709347069689291509 -0.11843848985398150453 0.23104118277651097824 0.2904850591650559033 -0.50744090844375810967 0.097421682536539586095 0.18768327312808866236 0.16707201437529128896 -0.093445961390217144316 -0.2755629856837116809 -0.0062162394646019941691 -0.20539386719335447906 0.0035306165348093498935 0.099237350285245967685 -0.099462247138340023622 0.012486666216600175727 -0.38216751286995370718 0.200590309683144008 0.17239195387617345379 -0.21645126586803903335 -0.54738728301284456101 0.079593890551123189225 -0.094369178347018953246 -0.2962677838027949484 -0.12143727634740042465 -0.052900829470425299317 -0.31696526614003350808 -0.02770217702756752956 0.090390892135114045414 -0.20748377474954113331 0.040877469411981663672 -0.11385354877394456008 0.060268129051326599366 -0.13258952987967737025 0.12076917396995735798 0.050176625967228334624 -0.28015785624773154039 0.057742104794896095821 0.09223672048488214259 -0.17604442892135907517 -0.083272198275207057194 0.10177765616461527387 0.031840938553510125808 -0.12822400958952942518 0.0022067039739397543291 0.072284305640109486335 0.22448263231199125367 -0.43214005836359331569 -0.090777984276206230563 -0.15863189754385736974 -0.048167098119281485935 0.027059370607206513493 0.11487846569387580309 0.1792692146655940344 -0.064950327047610723064 0.014009358463109699428 -0.11127305439835495637 -0.19510272364126526878 0.0053210908393375661377 0.001137446326213511355 0.3615068263335701193 -0.076102583895939976411 0.1710185446020743294 0.13361170561989252348 -0.1173288208933065957 -0.32965797241094701997 -0.04287019444270673274 -0.063777582148996633804 0.54785274434210906591 0.10049166360292081934 -0.013013290396535964061 0.018111510458022991865 0.052477555601896638815 -0.038000963271702166424;-0.10897593069778682695 0.15197317630856593818 -0.029399934784263535154 -0.072901254385878799802 -0.18888950654702876819 -0.11653608171513520075 -0.16942064739917078731 0.022341323786438112287 -0.10297435057469381259 0.17420543249708225764 -0.13120839515835047706 -0.1214490160582193945 0.065229833245430107747 0.14339172516220652365 -0.055098657352283121613 -0.070193360008775740333 -0.11007717090747921873 0.17726566166096577315 0.12124392578345588589 -0.023959629784235079303 -0.0022102008976192894993 -0.14006750249776295236 0.14748227623817056209 0.19107808035974979677 -0.09665527887442229571 0.15353777759936632075 -0.16719855134921193796 0.13474028389473521883 -0.16399089842812786255 0.072823662594027810391 -0.076291054580102976579 -0.14594586588904992497 0.05470629314436895041 -0.10085077289637099651 -0.12212318976620581412 -0.060741277536242137269 0.089867820972112003042 -0.040050316423418212686 -0.15873347742302060248 -0.016621281571719378339 -0.026821002165063445588 -0.093524468878900882118 -0.13055023296396417454 -0.044764222435071922279 0.029300820128217903299 -0.18612379648635724028 0.12082517855894087111 0.016221113973094749422 -0.049156356727375088989 0.016322034974665257379 -0.015261635759794413975 -0.11579847400077045161 0.0065841446291054744194 -0.041723753336837123007 0.024051488190530330435 0.09218577624079071775 0.068025459921198225266 0.012794532194804662806 -0.062610359582079375129 -0.081654627767136389593 -0.14777899357011814452 0.07663613412989840612 0.21187665517184681163 0.1580707577150461951 0.061670620124002664686 0.024984241248627001714 0.072023164059660818581 0.066415187903148237281 -0.19827819455920170366 -0.11382258943398883277 -0.059043900529006682065 -0.088892864391355463916 -0.050964135835026687371 0.13517956475435133346 0.20084592765377673462 0.074948379100775841533 0.087023341737215542668 -0.05079275689997912735 -0.088859651591344790411 0.013523633737187422399 0.068049650726993121674 0.064184014841143013919 -0.20051003906949502187 -0.14072088769099713734 -0.14785402813752868134 0.014957708863566952437 -0.091546639215951852719 0.04382310235103954732 0.15405411583838984901 -0.19589918723342036877 0.0011064968470036865879 0.031044301131669237853 -0.12857252922040776633 0.13267131899021930574 -0.041063849268551423644 -0.15413123257272673405 0.015078366578099598738 -0.13583074369079845001 -0.011808116078676090394 -0.16955234935099589011 0.19663459548564146684 -0.04061848135761061962 0.08143244085402909227 -0.069283282309450300307 -0.063633303990041384379 0.15170052141466466855 0.06351370071405174067 0.090426047465123018942 0.1402027738677674995 0.1488176398086339669 0.082453424296277472161 0.14229099641694259448 -0.15436476475399354968 -0.14569394049678366376 -0.048045545811006777626 0.0037007167541808520458 -0.169871757852007782 0.0923395886271638211 -0.1373767776761140591 0.086036066401557365069 0.19473019444104475162 -0.11079927905868840188 0.025424911605748660992 -0.19188845967624890143 0.048325774105437431516 0.1563094709437530816 -0.13344137910269313063 0.053165874005782209899 0.15741286943307697399 0.096910547304435212812 0.00010590461914511146296 0.032857972634823949531 -0.072421810643233969218 0.089471627758824556764 -0.05331249542415135434 -0.10545662617056823784 0.12466252008953047914 -0.11162329445132633532 0.064702540367735275617 -0.16122964502524458896 -0.058828594417242821568 -0.10345623778922925784 0.054376765660414320969 -0.1483957367774899061 -0.055760950005389685324 -0.049148060697082732173 0.041782195485618130182 -0.14907074146466814391 0.096376246338275836645 0.088789699749401068685 0.10001540449737041094 0.11474141232880738506 -0.058996904476001622852 0.12543304096733617903 0.08287712103789304785 0.15975495465108388582 -0.035231112150970418651 0.046579881105121435925 0.094156355530509161511 0.19617221863418501937 -0.15301243471432734999 -0.19244132023544840981 0.19034718696526103932 0.13015710510103711828 -0.19947022277702339266 -0.20201819145424493307;0.046614737747588404215 0.031492465569489182242 -0.05419595696924345285 -0.20142084644359639634 -0.20755596191953792906 -0.1380350456960774963 0.063188413194097348136 0.037493876691842488447 0.093561684702197611685 -0.07001556964839893149 0.042006405735992589923 0.094467777634858668412 0.17978181635458895249 -0.039834826864584844952 -0.050803938086655869855 0.023434672106181352047 0.29919735447695061659 0.0062483694527015638809 0.026445944759833542315 -0.22424439019160602449 -0.18785396658128125646 0.060926138176311241124 -0.13677158502522354655 0.015408937824777044559 0.21693972142172687767 -0.2146354969920336031 -0.016345708486182199126 0.065312546668294405028 0.061988365176980850246 0.13315701009249120146 0.033671999854275720676 -0.175575735868465449 0.066787649993429953899 -0.19578758796513223706 -0.088406091534627834205 -0.1482751307642290739 0.1146004329200353139 0.11024281169442814998 -0.031910644854029779349 0.063255911434731901255 0.023565879320675719999 0.13444554632553387674 0.027924032222931521874 0.17903873693926128374 -0.16929495063925512066 0.33990760079650889081 -0.15434426378093635268 -0.051926981204025397798 0.012865404484386382122 -0.11017975507519184308 -0.38019591384816359136 -0.15925389142158402622 0.044195553972729249848 0.038473986425883482942 0.077541228549950796944 0.11823183794521414935 0.16130024203557200013 -0.1132984407922611042 -0.10901045945938211967 -0.10375113069873583005 0.10799455165047441851 0.015885830423534818417 0.074034513947085753283 0.075405927753225771015 -0.23962683580355106927 0.03958230525098135888 0.0068942239210651873327 -0.066136245357885384277 0.073339893949440224108 -0.036790308862929249623 0.058592514467198125727 0.19349009940830486087 -0.034335178687336813386 0.058962280576312635361 0.15961730806962637352 -0.099453521432051397722 0.020952611602138366403 -0.0056918176739889523794 -0.13090129999878388767 -0.066728980647821733996 0.1696756705271587895 -0.12383732605242764313 -0.35613947644558013872 0.15365908780358683572 -0.28221528853016475402 -0.033360648499687117763 -0.083318706893532740176 -0.01103997049608784059 -0.036860018354203299973 0.26376643525400084167 0.031489351558321221347 -0.19212688869544167214 0.051731969504199927512 0.087053023035476004288 0.19507795008674810866 -0.030551683953767391072 0.12757134748023907234 0.078417696550860283011 -0.021588316185468039987 0.16541668704614995167 0.045603288418818256622 0.20138434261636803391 -0.044589173730037297283 -0.095305891500052974941 0.30746854278181945386 0.2357552970816118032 0.1429129179276219519 -0.066858214476558971984 -0.11541547169084312441 -0.16255139816240282702 -0.24980446382837792618 -0.18508183681429027367 -0.057691266520187911571 0.20425721688190770498 0.10318961372979679192 0.089685268444850613223 0.36676811306896750509 0.046372230881295259386 0.28007069921716398753 -0.10172118685426867479 0.037129298485166099819 0.10342538937347667272 0.052156119075032224275 0.31650757565384585179 -0.1260128113305749864 -0.015588315173539771252 0.22090359863397937557 0.069849930221443867762 0.054171012181860558887 -0.097495691390360975093 0.086766925054798701988 0.3561455084245545577 -0.31173496894184249406 0.12557484385910233637 0.059756668362352168 -0.17793090572547984318 0.018070214990621502604 0.0557834722188572385 -0.0097226916779767375704 -0.098440627647781400733 -0.30937021115075502564 -0.19271738420335959852 0.089152772704701468975 -0.007301465308650835831 -0.25461801004985967767 0.025997167557604807658 0.023560331291814937127 -0.056378182780996002887 0.1249017161986022556 -0.17750978997165683948 -0.25450731657953784559 0.14667896762621848716 -0.07399955913295507004 0.0051140219881386341297 0.05837345169513383919 -0.2811489822478663303 -0.019957663959452299346 -0.15069637897702270468 0.032780623398308686434 -0.30084453379130982054 -0.32041084819879667167 -0.15135947165730292974 -0.1777211431655550955 0.076968161864433906616 0.15592141025653361019 0.052472875703602026021;0.018727027584981834063 -0.043866446001570691404 0.046998134834213591005 0.089462077018564900577 -0.12736551209083432634 0.033070800875013302289 0.02452951272667667354 -0.14988885872683205269 -0.053662133416966670274 -0.17642073785921230655 -0.065573230169602578221 -0.10416577699127718692 -0.10460231275208961566 -0.12247307252679975886 0.19201765216363581024 0.071289026652972292686 0.076790397834547552414 -0.34176433526795085838 0.041821315819966821403 -0.17646161308603067197 -0.10872897699356673384 -0.014560846830983346922 0.01178621502421627748 -0.16126479359661896607 0.095183642775668375613 -0.045135207554122466767 -0.12955494002859493929 -0.061249310706043377794 -0.16452558338645489888 -0.050386504218079275486 0.091119281079347830277 0.10882168491718301195 0.043382453085170233353 0.12547009445678919404 0.2308177922948224936 0.018503680529227000545 -0.049681060361746701148 0.10624954919009807486 0.15030348037153401508 0.22013204605079067511 0.014816141834743154493 -0.07041571003185524702 -0.072952643489252774756 -0.085300913745783857323 0.035878320383239861724 -0.053068037934540172873 0.046657766965953320626 0.093251945076907163945 -0.013716666210398310508 -0.19760517604399005509 -0.007201982929016952778 -0.1172032610567396993 -0.18408797560792594661 -0.054761301883979200678 -0.19700668415704220005 -0.14302702606717609957 0.21954542527953715969 0.024580723675095009911 0.20718700427251365848 -0.20318881764411586555 -0.27978789201474496551 0.049104670081251744485 -0.026382894269400321979 -0.29167142304924742469 -0.010396842507856895316 0.096417430159612418916 0.11858711916715652945 -0.012484024416524568124 0.037103973046976129746 -0.15588694925346932574 0.23929376272076094412 0.21034252100538583519 0.038031043189965113571 0.27370952152326000206 0.018123247090761674533 0.044554453514363823174 -0.064564214640324649186 0.13267206457786684393 -0.092542862869812475557 0.13910697023507453962 0.13312817475032637238 -0.023156878132386517211 0.068085061176414815587 0.18971412565222692259 0.015740422265205177704 -0.061961401419415709779 -0.053261123009555773333 0.1795201327385354817 -0.026575999204367546647 0.089442472998394501049 0.28196002206379328081 -0.12528132959078314146 0.078235763666959098894 0.0030324194415569123012 0.0017249507598328626956 -0.0041647260621718376616 -0.097686384275661036769 -0.11446914134335850477 -0.033815976601264834123 0.10565921638680930705 0.094392018088630735839 -0.34125689905054001905 -0.07884535568269342154 0.011133449052398602941 0.044824954770114618097 0.059272359682819859839 0.1145758813435151513 -0.16028626759006159297 0.13506891293319900349 0.22627022480190298048 -0.23390123472042745334 -0.01145272187561440988 -0.094588173993671281758 -0.037721693445883476559 0.16608164400800148885 -0.14873619242944471908 -0.15987980924091568791 0.042511322488496004757 0.081259386241137390727 -0.14251991471190400551 -0.049962439461363937487 0.049229336680947331784 0.10525513651007864513 0.01590147669954876386 -0.022277257311633730935 0.027008809579286193608 0.13887141141349987339 -0.0090875029671875044712 -0.013606353836851360628 0.047613288972464654081 0.096280708331736949979 0.015123250816529949098 0.17196267416620816815 -0.27060298935169668777 0.059652107065257170548 -0.06612934661948358106 0.056363065409279919371 -0.032237358308066933754 -0.24339916501333702659 0.16561000144725734895 -0.088614968002181659923 0.015989977494105980793 -0.0088895456191433498694 0.041814719017794051148 -0.017522080358420871748 0.26752786731730410219 0.099506862813375326904 0.0075470857865546289722 0.22573829540170706198 0.0030188391608538169691 -0.17846783548467748393 -0.16975722377205942903 -0.11537718386667879245 0.1505938255291768002 -0.018918114217144933742 0.042338864993741447129 -0.027073684265156598705 0.058917849742876872432 -0.067767001857176586976 -0.17605726805786744982 0.016608077950315647958 -0.10574187538080263848 -0.14430690206174251466 0.20763163176701932011 0.040597646745196086515 -0.18437296750954923485;0.075992910448078432317 -0.07202861787741994537 0.073512334632708814519 0.062336529144012921277 0.15599813189093519883 -0.0024878236846470353633 0.0051563721555773281424 -0.13460586425752402162 0.01081471594733576444 -0.10711909945367828478 0.19299257090467539233 0.051478776227282446731 -0.055249559800389404229 0.07894769360206657649 0.028857407420381776114 0.1577501624692960458 0.11261009176888264749 -0.21603738488766160986 -0.087364241759389893449 -0.15731469098210223989 -0.12753785432584488491 0.13898210963928803174 0.12456834113125782315 0.19314421324752237275 -0.17137402454018502151 -0.11001649405766084078 -0.16541780253030430314 -0.13250240106329078116 -0.13006524285156184639 -0.054403623687892560534 0.34513807185751044226 0.0633329767599545429 0.067483512849525167931 0.072554479302340213476 -0.03729206402548089494 0.046705812064645996218 0.15461060234931719992 0.080687207941423089164 -0.20493529470244670199 -0.074786902221247203437 -0.20250109656661788304 -0.026394747206159568237 0.31325586728451959573 0.185993144797148513 -0.0028505549531783035827 -0.066676089396215068583 0.096903626017885574617 -0.10787227058283865855 -0.086372202283434978964 -0.32033719049740994045 -0.19113285372411870089 0.13380928364344191195 0.18002797274837251118 0.04308417507769751742 -0.14129360942550189817 0.044544286728404852704 -0.15781192122125886623 0.1262261520174463858 -0.15459931335339155423 -0.10002245843914503443 0.034909289153974315534 -0.24597814293309999689 -0.07320301011208102393 0.10737475923394032562 -0.17099689444381963033 -0.024674464833740951397 -0.13825381360552119192 0.059522833617641282555 -0.13974999155239278825 -0.080600194885876885742 -0.067507880504336509331 -0.13824475810761296946 0.022636203421400154928 -3.3177415992981934556e-05 0.088832307180064573604 -0.10508232751683543871 0.1642203173824874074 0.17320130843596578951 -0.15482780187332673139 0.059533475649352712855 0.0047861792514263604148 0.18690029573333646895 -0.11437952711511620296 0.04349466056077438969 -0.0017412152407734029017 0.12235425913557639033 0.092282594728058303657 -0.1985298015184187026 0.18293787886636447837 0.15963796542835093084 0.053760295230069560235 0.07675206924375775619 0.15433222208816999022 0.088359073450082203927 0.16000607652572779172 -0.28088397059923148058 0.17309899671753356531 0.047663331820423135432 0.20823412685470624184 0.013796486739160007673 -0.25531381870277070067 -0.17321215772559422907 -0.013997171206942091159 0.30134303915271953844 0.18323594025097830751 -0.22306526833946493937 -0.037270955003723300891 -0.14623036829672986237 0.090917719964576246272 0.099797463884091303088 0.11938049198676031759 -0.19892723307993098736 -0.039709059623346087964 0.16384876379079968411 -0.077985978582324172459 -0.25517320294578621498 -0.0031324724262965127075 0.17301321929072766004 -0.033654836051402708952 -0.057925404683593396948 0.0040404476076960132644 0.22845683695156121518 -0.10882686545752148777 -0.10064842621361867747 -0.0093973132642148002325 0.032364730621158965818 -0.11027512921458187956 -0.04204900188625279589 0.017602385413257634617 -0.03189422365084410016 -0.13155729564872215009 0.10191419483902422471 0.026246466010095847315 0.075964997059441152771 -0.064188417389654098266 -0.068524785843431954002 0.3010660649315758941 -0.10542649532452580408 0.25361433276429301564 -0.14504700209861581817 0.0024666093351123213884 0.035724647920908278453 -0.13378557553395628577 -0.057971214846276014621 0.039137051043877518763 0.078163396297330073326 -0.10211367404193645581 -0.085413913650804126898 -0.10190366119649606202 0.038964532334157878091 0.063987099416225906579 -0.062292215314657103931 0.050834985431943889578 -0.089476911151519025744 0.11218492228244596187 0.0023284498028302647379 0.21380154714701793406 0.097749514752887983748 -0.19415632387249784352 0.22222582028341830718 0.094395693469336600101 0.047343081668205500012 0.18630055860376007471 -0.15321062536936400078 0.15273663851422000781 0.14035416436608044721;-0.14725945860483313776 0.09272793013435798315 -0.086249026075101445366 0.39173852505358969234 -0.43765810311538122512 -0.0023308936867744954602 0.012240398807522364505 -0.1240711691016503776 0.087756310643844925856 -0.295540933572303266 0.17527731801680648815 -0.066036946722233147433 0.0046760383368929098191 0.026754809721723171734 0.073888602653164034417 0.11502846517449294428 0.019399477616450954559 -0.050414286179849478187 0.075051788118194628918 -0.29382382230294923353 -0.0070743660540282110594 0.093751845287018895081 0.034459040484876364563 0.093128426014880874573 0.19248234009340961514 -0.15817721506958148936 -0.1785872538707179713 0.096026132311995679447 -0.091535946237270834902 -0.11809164251474701945 0.12959050800266849746 0.090280924822516553374 -0.10780299904932125199 -0.17497662222554200007 0.14891118453715462833 -0.1591508853291689618 0.0091624562860571356904 -0.030405746296164638809 -0.073795550393225869956 0.21521545280736240069 -0.093893019450777576163 0.28396382495981925542 -0.29495492123110816918 0.08308707865632218581 0.04607220932949150638 0.16120831442104752163 -0.080104315394646574688 -0.025439899136153402981 0.19872994672851546083 -0.055978769654035469283 0.028621789415215585783 0.086515966385614540002 -0.1141034424246919754 0.1153388913903239249 -0.084428594764823922114 -0.1907311766445566048 0.044270699461939080899 -0.021045471456326611537 0.10327663979299661623 0.18508077092158703447 -0.18663491028721240772 0.10394613436859710676 0.060831601328192798361 -0.017879596099556308714 0.1177848517692360597 0.15020122974541660898 0.09310091367557857267 -0.21036881821132102921 0.10979671163347129448 -0.029841048716140593233 0.20849129277917480274 0.083467127073312608054 -0.28707297298299055965 -0.12656800585374153312 0.07841962505803910799 0.053225016798877047841 0.15164864848437645262 0.2475359901469693924 0.059494354282165429204 0.048025791901785602755 0.015100154600733408511 -0.05833103216735828489 0.062589838926312202361 0.035705095861470775853 -0.011853086209025512701 0.12412831233669575914 0.11369801160803943985 0.13566507518773154861 -0.26434493265354380709 0.021043624270881203242 -0.1361610373120356321 -0.37184780280316193091 -0.085533165401385821691 0.27115032966567986783 0.18377195819929034726 0.23788717213398313799 0.082960851194709805956 -0.0021723635144367918481 0.12437073958704834842 0.099379794754474587437 -0.056722934041213188272 0.16768462635956524198 -0.08489644456742362344 -0.056989918853495288853 0.069074635766636194312 0.34299639826719729996 -0.028391369384771037582 0.18948669060477604797 -0.012265456875819867252 -0.19941962238877344871 0.11087879694481866943 -0.18782020099685728387 -0.045281928786526974562 0.0025605596705677701602 0.0021678802050074733043 -0.060286138763481426917 0.013087669380116401588 0.032182607615214776919 0.41853854675221091597 -0.13968947945797630106 -0.090773444896009469751 0.0021978190894688339786 -0.14197970917239838284 -0.0075403303798644363831 0.41559974568923885307 -0.1163571515313752136 0.095086628467569184187 0.13487777282142585089 0.064078093287085441387 -0.15417526006804233019 0.15624423118558722345 -0.33053052173033337091 -0.23698610329272948305 -0.14573192447835459085 -0.032592986117030445237 0.029388504311525072421 -0.1122599098599606493 0.021623628439307034099 -0.1658154611945703294 -0.23358104638126239716 -0.28600065517561418238 -0.011818726652445359776 -0.035478086419449508804 -0.14784012326448886521 -0.25434177816177755416 0.24638638427201933756 0.12523360936662333853 0.035704870700461063815 0.10318592658667267992 -0.11219795938172173744 0.10415997755709467676 0.17179649860486262414 -0.32247752696286202667 -0.017529068224733639764 -0.037346426629968697275 -0.19263866297519049997 0.06118961518889343143 -0.10089101172163410236 0.085635290652732842798 0.099048372784376295663 -0.20179315506693212834 0.074175397228868386601 -0.09157264113481897172 0.15986305870284181485 -0.12698602102165945649 -0.0094574740757478251152;0.14361303424440274856 0.22397053370536312844 0.24138973514860861957 -0.019316920640995365738 -0.0041316913713294323163 0.28240623017606580891 -0.070143614154722061516 -0.049762168653430145782 0.08036267586825679432 -0.19229349584552865582 0.16946229546457278192 0.13436800231188752996 0.24006718902159912554 -0.16897108444009545369 0.30944382375352491588 0.040678960842802508457 0.017782330848605604895 -0.028531914679731245482 -0.12476811283434803557 0.6076825419802824868 -0.10810735901684070948 0.26083837119992991926 -0.21696833277980001609 0.080522834027464393336 0.7500822607762261951 -0.17347211160776068728 0.16203526811344040603 0.22035918076032268154 0.29335749918377096446 0.19787150075458323495 -0.08894930717616378324 -0.16145440107111519445 0.25116288984502815884 -0.13615534530485196019 0.23693327885652618048 -0.13517150417513468241 0.29720396354015710116 -0.3043060419656908322 -0.41438249635966695195 -0.31888831045263094088 -0.13186821099201295748 0.23154649826393058909 -0.04921092538228486607 -0.13654559597056309395 -0.10766831674158011678 -0.1182560391868190397 -0.33699520814501021659 -0.0076725157466721793584 0.010567240464349659732 0.52293791433960046255 -0.0049769461944966005701 0.22416042009333853047 0.072329991353656974962 0.63329308033388742594 -0.065632726076694583583 0.0076117599407981312992 0.11460870630258068736 -0.38334477128756233588 -0.1544482354588110895 0.10777654989945884001 -0.0023846822741820619847 -0.12670285221267696407 -0.049696784415665051782 0.04001341680447895871 -0.20567586785182082054 0.058669977021364456971 0.12248694177402641436 0.084472197358211903451 -0.55125095029441906203 0.071075428119729319731 -0.13355335420486860731 0.017667326727376655993 -0.098954992099639815795 -0.1023862319007652899 0.28634974725274903173 0.35551230828245822257 -0.019193279422893394504 -0.18183109248112838685 0.14174320594020337061 0.29008698111561082023 -0.02305565516629419498 0.16432981738123930704 -0.07961747860782875108 -0.15125883170255494115 -0.14917504654149291166 0.10384692368510019256 -0.15433547557910715087 -0.13472135503706536563 0.21130785897363787984 0.0085047340970473631061 -0.032334707182912307555 0.16690832662126736663 -0.26973924007987770679 0.049546592873722018757 -0.14530069806373632768 -0.038051223831038281931 -0.048169734242450072681 0.057435502792286693974 0.19376418677112239308 -0.016432979029177712665 -0.24374035443641667298 0.061461234647082460536 0.23567260026397465755 0.092108691763584257806 0.12610080222927100291 -0.048166282029422080591 0.074043027584829085308 -0.12598109457751963114 -0.50098878566885340913 0.13623374832761464548 0.23122626254320274852 -0.37420057714624116452 -0.11576122296705365633 -0.13522562186393285999 -0.057784776287985610554 0.75327762135511988628 0.032990471524324334329 -0.089317836161976166265 0.12638804316228630098 -0.052541189564835978631 0.19517374572743489969 -0.14934305786400881022 -0.1162303135920099012 -0.071596670592477401618 0.041580273594654035274 0.2394895121748090161 0.31006771889597145586 -0.061861612255207351629 0.058574452265356437286 0.044281743303827822422 -0.1813791423712033668 0.18140017353453041782 -0.41222771981395700536 -0.065172148170356589136 0.14955080542032594959 -0.013544396719534033263 -0.15461290857734139026 -0.2016060588160306366 -0.22414187170043356478 -0.23446799924323957764 0.098178104256466364186 -0.20445712398936094489 0.12762253161717609928 -0.037377738117029324361 0.19547380589768903469 0.30835134936667074612 0.16458545728562334887 -0.21463635261861180314 0.05177577580375162386 -0.33034666023012548841 0.37023359813756417935 0.17143875501401203976 0.031481173403850259973 -0.060883500909172411086 -0.054187677835809577864 -0.10464154692329377672 -0.046999522500439025463 0.27671419056135593273 -0.45935040341762434224 -0.030252221099486067968 0.13391763432003178647 0.033745201070490983553 -0.064368097204267657463 -0.10670410576263432423 0.12965366635360614511 -0.08066504552545962492;-0.047922823089147165154 0.046719168799489396715 -0.24484607467055866104 -0.015150152118714821023 0.075505520986796054173 -0.017040008772618381316 -0.10046059925755437825 0.59296565225056319104 -0.0683163637808988089 -0.099632522308323395732 -0.26931960573713348284 -0.064126772356180000711 -0.1389049672446155681 -0.21816154883287752764 0.15463117915961488436 0.037386495924963167314 -0.18796002075636306095 -0.10986898090477403844 -0.092969259984888655279 -0.093601587771369718083 0.07484812628909170984 -0.16607931360492844686 0.077206862312613713795 -0.092334683746998380549 0.12733883009987007062 -0.12647282733354944795 0.074725062474892536835 -0.22342121305716544644 0.22047281306198646122 0.053476282981400856398 -0.030351541325592298892 -0.013572647553154154609 -0.045845678113061977266 -0.073438396367103850326 -0.15423755543717593275 -0.024503227323521580006 0.19366253979566178112 0.059158903633424297919 0.071889517390287663301 -0.14406348788632747371 -0.12774814490430161373 0.12207926951824159267 -0.1862630154344281086 -0.13371264740837804363 0.097877374881032194742 -0.16428062518042463314 -0.10010168852458435629 -0.12903474358255082044 0.29942411401247831515 -0.12423711254487580791 0.07112377138995834569 -0.039594486345711367437 0.023967628043780483948 0.27110509445504082926 -0.2336192938997287416 0.31712667135350480763 0.065105047542014293782 -0.14885313783532755361 0.029528943944618114836 -0.039473213572593694731 0.070972365342353099793 -0.21359911248848845178 -0.00022822416170763595855 -0.1840623345920443521 0.012740892427342564303 0.16701149047636068556 -0.052872210448664642979 0.049053938625825417585 0.0025322397541778828359 -0.15461226044668621715 -0.12179053536234270283 0.15493184038824864279 0.00071577052942507768396 -0.0020986907834145904217 -0.033629917318201960064 -0.0094901183718066033784 0.009687314428860303861 -0.16129434738764511503 -0.22024672386079688358 0.29563808672584218629 -0.30796226153616979015 -0.081225709508246965451 0.025301619377481394252 0.094510798449518498843 0.14146546103721924226 -0.37175192654053601515 0.0057524293829389460536 -0.12333140567722675196 0.11278757185796765838 0.068114145369266881902 -0.084894575506200511961 0.088331688447575704148 0.19651461655514484983 -0.10795157058806557904 -0.20382701866654548417 0.0014180308784242159903 0.0063073309301706565258 -0.042994575999077452866 -0.074422713009783938998 0.11695568225977025223 -0.10288776513195291296 0.002902931134019341719 0.048920251676780004968 -0.15844222473754865366 -0.38635921158458730318 -0.21104089945754184177 -0.14501779314337270854 -0.24922225775811568393 0.012041145855271377652 -0.26389312435103778887 0.20808760666915884774 -0.14582594205939000687 0.020825523505416901338 0.22095921021619774338 0.052243933687395174847 -0.13985044931380583022 0.2512049610399084143 -0.13095119002555014043 -0.039218090955024667577 -0.0043830405330173641265 0.071447179483242612141 0.15097145153868801737 -0.066156950068111744501 -0.052169970538789384173 0.037374156494966392916 -0.052445117820544867593 -0.00064085975371748081422 0.1398575338016438685 0.12486172810653958787 0.13914776831113456756 0.035804019860365562944 -0.12787538159871394972 0.14457182036323140695 0.19644032935383776151 -0.00023206556004510235647 -0.11794694241090378228 0.28746365164565845784 -0.00091081080796504010344 0.028366692082513116774 0.38950625327952648203 0.24811053829583937236 0.10473523125624562002 0.088896210483947871173 0.069465973667037453354 0.14418892895324161851 0.16993261907971884961 -0.12953663650052196776 -0.31824010518795814439 -0.20155105596417000058 -0.043929765740321827239 -0.027357393911688628052 -0.013603179781016990629 0.019053690949520831616 0.19160065614797028299 -0.11722395750058570152 -0.022415759314808807873 0.13724195531111860191 -0.16738218324649728475 -0.12277560186681069077 0.11633995662572758911 -0.20598704899312031413 -0.066162554053027872181 0.038535175480368000223 0.17007652763558814279 0.20761218663026784204 0.0824187310017506225;-0.20332760959073042928 0.11954490700024487937 0.063594123177674349856 0.054946015737209190355 -0.035169937836891852767 -0.16316496892383058892 -0.14670395093426022437 0.21919262782067328033 -0.016029036934129645142 -0.035135451888719207436 -0.15223009308706098031 0.072182752482443962583 -0.22471139259256439624 0.17628842863910584859 0.09501349651336891966 -0.056148289439854878746 -0.15134146640020407215 0.067337700389601698459 0.070899914580064560266 -0.19354409692110344232 0.19234436675885030477 0.15976103443035616358 0.045650992874703269497 -0.0620752298609448111 -0.0041190808667165793727 0.10728410793317573468 0.13039570077875217713 0.00030809164179068648792 0.15435618957087943182 -0.12526837599927651001 0.020916474267476663218 -0.12204605436398842377 0.02386285915007996597 -0.04505068381878107181 -0.1641172397768047575 0.12877643341717737169 0.019812925532771023807 0.063294614138664870295 0.084668476175743079271 -0.16659099814665137562 0.043764063785023926689 -0.098513143867330676962 0.034184059028304951411 0.0040670123723980117908 -0.17668911293644673499 0.043994305846063147536 0.15475270481597772076 -0.1747177327224886112 0.046061258878347562107 -0.063802855842540390219 -0.11279811625150124033 -0.023676975556726941735 0.0017400677812242958467 -0.10357580462562919477 -0.069522186360444146458 0.11380182848245948279 -0.11754293455930242551 -0.030834069475471674593 -0.10031856227391240666 0.1688615397520057404 -0.0081211458206175649727 -0.032421355892041425761 -0.051471084077150855429 -0.087963283728512947635 -0.004920723045918205113 0.14289484574001640182 0.039986766974264613406 0.022287074113624155691 -0.0048395230518957915722 -0.14217485881553820759 -0.10902671300343717842 0.15254366993769322147 -0.25365991191616832356 0.19371521579668377067 -0.12868893447517351647 -0.096457073466348353108 -0.023107693323750934378 0.1234162957254469617 -0.038085406221588374853 -0.019664672800020176202 0.054986323601119754811 -0.15304109670480972594 0.1133147911043298206 -0.21673828348105597663 0.14119102917272313702 0.11712142154510662984 -0.062682117484744365177 0.054596652485858494785 -0.047656335876887029324 -0.1961737355474929001 -0.011435357769675627213 0.10215851981211410138 0.080331656933865042136 -0.17018095053893120272 -0.1117310499395850476 0.013456535022591472467 -0.10829300103389585819 -0.13856133832580957987 -0.0072178670488072787376 -0.068804036427790413177 -0.18284341733762948801 0.099905326175935602051 -0.10961457139346950096 0.043406885316960928944 0.13859057621975293118 0.1844876354544817687 0.20144060219896359198 0.12340653128643624958 -0.21499133924422159092 0.07673098835798991546 -0.019967519273479988201 0.17123055826325120354 -0.052416842275493175096 0.15767639753394316338 0.02855965930089290894 -0.21944808223020426108 -0.18966706296349195027 0.033360153098719536047 -0.1095047426970991028 -0.10233758334286575942 -0.058951713028620227053 0.0079961609304226091699 0.081703487926245293993 -0.23924781041925144431 0.10089097620645781639 -0.15143281123597890359 -0.15614794688572380954 0.17634506626389301331 0.041082206198033523192 -0.078077920304027506604 -0.013600738941721422434 -0.23286311868588374652 0.071325992945474120388 -0.10924964309844786836 -0.059110342258703645058 0.068818166998823454561 -0.017282613078059512468 -0.13569133107966638296 -0.18550831523311755999 -0.11373287813459991014 -0.016103380564576559586 -0.023173868692451027318 0.1555550383072995535 0.16545688614705628128 0.022430443834014657245 0.13538856119469841466 0.049177592623945755312 -0.027596816360393738865 0.15094572736048592065 -0.14238219044731140195 -0.071568611724704120358 -0.10965974095103254993 -0.18005606899466389259 -0.010120967876780354727 -0.010177101096758855298 -0.038920781904082442371 0.017663628794237461184 -0.10814316421565334236 -0.022111810041239434582 0.039935365526458113661 0.13156043374904510812 -0.11959303584953839827 -0.16767531896978069006 -0.16802431092717060035 0.14452040754160014324 -0.1282788242673144341;-0.029090483180260539448 0.12761977391444900842 0.17457957613739599756 0.037849715074291842565 0.19200503364225246505 0.060013119962922252537 -0.16841721179944410536 0.11684883925853689624 0.10980683220433720693 0.15706489017523719842 -0.18441607383684396892 -0.066588950732167140334 0.091341358462857485945 0.0095431948816826622783 0.10432792697103947244 0.071191261836268962537 -0.16426383794282045647 0.04964539191047893929 0.096376496262863944886 0.14345037188200937539 0.00390418202857526625 -0.01172342660445694143 -0.23065130391012980682 -0.014320896986398979484 -0.21997742034795553234 0.13067390238889778353 0.058348156741910316148 0.16884440356340416067 -0.16501509365801780849 -0.035770202052508595636 -0.12946747307490091838 0.029552912431411254568 0.02036311822420263512 0.041489060989131201773 -0.0077514173805425592989 -0.14198716735594532623 -0.087081659436745423308 -0.089781700128484118184 -0.066027432741493252699 -0.065617607021117616006 0.25705206032637695213 0.017220135669519024552 0.15850449943272454378 -0.073551927691919483099 -0.10394384940623582758 -0.095697449495446354484 0.014653180295260383875 -0.010146929079316757 0.38168643079442604593 -0.016691402602669019872 -0.15143922492543890335 -0.18937980734874029776 -0.101108631451173131 -0.035045169825227109883 0.094713979614331450518 0.14863203398044586012 0.14595462398909880841 0.14615888633164531019 0.2248679046316183483 -0.13529794842941927913 0.17059558207092526128 0.074725369435920355188 -0.019355117450526034689 -0.092147370810529788399 0.093915471620554108467 0.023295719553089594411 0.059869751866732684453 -0.25341675613354069929 -0.07915657419460701838 0.048966738478257616773 0.072808365734932323221 0.15752799162399741539 0.29712259728288076266 0.17826167746945908998 0.17111198387914999808 -0.088025184826434565988 -0.15192947100545373118 0.068663558081118791776 0.14994086396384723181 0.16937420066649877537 0.045538878961585260718 0.13613807824020932036 -0.1755235559538203538 -0.077752539372873949453 0.089050504140597327996 -0.20272799743607880507 -0.097899237643593442493 0.072705016215039275362 -0.042752143406932577308 -0.015214135247444471322 -0.22133103672608062107 0.069316040745181786709 0.0043256770359175848728 0.15958230920551369492 -0.037836586628885414407 -0.15270011263470209539 -0.050617848127964479299 -0.13139523791373225459 0.27341684153291229142 -0.15985307055356828831 0.04662996273565059302 -0.0010461441243040554838 0.09672179525715796089 -0.11535028457014037673 0.17431108501318182125 0.052406354714712152787 0.01195032451253893839 0.12724441411632239629 0.14175884868494650903 -0.018621141169503765966 0.015793947426608098694 0.035868568249169244244 -0.041918122686778802599 0.074198613433698559771 -0.017863168605540654527 0.11632833487499635861 -0.03369657364741374117 -0.08729015460491204581 -0.088937898036876891772 -0.28160447850133413228 0.025664280306533813342 -0.06936212757649749816 0.15056658764873284695 -0.075584892987695634359 0.16972107725519017252 0.21031468818166246249 0.020131976721734338304 -0.054730697103188806485 0.12396443631359160831 0.15390443823913166344 0.1054302774982720653 0.048557827527452454563 -0.061457145502182841668 0.079590959599470476049 -0.13161596975154718492 0.0023246344130503169417 0.065882857937837546736 -0.024411258762378450216 0.11850853809626912816 0.19229664678305755099 -0.22053500937011361049 0.059820251752335677764 0.16407958987308840504 0.047221263834623716793 -0.07970249167585197192 -0.015489756568020620481 -0.36241455626114849053 0.20111051907624138968 0.25405154806198482209 0.014151680696265524217 0.12939107216373016418 0.062801515818710185179 0.064449513281443604473 -0.22650974262709311358 -0.0095908582836431097163 -0.13721891326850610415 -0.092381251219421881005 -0.097309902462432942838 0.0096152510003826435758 0.12984434890878010505 0.15792346000809326378 -0.25905731923270103323 -0.12999509615771337456 0.026126992333867150864 0.035472400824348195025 -0.10646806252153999395;0.13677304788376978828 0.061517930283177625628 -0.068302583115419465698 0.08598705879592047352 -0.12295254614122808068 0.10161163545940027353 -0.16328183437092841368 0.27708378900923907873 -0.1338121851767232473 0.15025290661788326396 0.077465626906407111796 0.084125104903519168364 0.11803561584484560665 -0.052987346392156887964 -0.10364790212862619312 -0.02997639215092583187 0.02155877012202800716 -0.027634253225213206706 -0.23510114002866314142 0.0043497515241718159862 -0.23376756602532314244 -0.21645678631454942642 -0.024231448070653256732 0.041053114290558273547 0.25101278682916816631 -0.23450770788992927884 -0.06923389582714239987 -0.065434979612688834449 0.062130164852750496829 0.046167741957583503798 0.019521491853458337179 -0.020393788005706597888 0.11795606801871066915 -0.019789618673633203177 0.21984011581886658826 0.02789945434374586225 -0.15230947644089262716 -0.29623986220898917976 0.034843450356325425532 0.095817493059494426855 -0.054127269041057635146 -0.23048949815802419194 0.22233991079540718627 -0.13356563727714407253 0.080951069404172668054 -0.17460577963602466611 0.17229475117251133454 -0.097130884348057194844 -0.036879436397296447292 -0.064259891015933851 -0.12966147271442080013 -0.11226485796232761605 -0.027174785558038188488 0.040012803254054603308 0.25718317177241323268 -0.025356145587552898768 0.019940872791510914214 -0.16350078758721392491 0.095046289993395469131 0.053660607674935197065 0.038189166319855333276 -0.19814621488842668051 -0.081981334592527030369 0.10245152330243752214 -0.057382160244719933317 -0.1160903887258070144 0.1966341562042829838 -0.025809629835616396121 -0.096594368910988104293 0.1320637026633687261 -0.12134327328709991478 -0.12139716198768080169 0.13207960073969804426 0.082483316526925365419 0.019248387382419712699 -0.053178759755635879314 -0.10091610464186206997 0.075533889236437640191 0.040560253399886628256 0.13329434485518182329 -0.0035357216501365547508 -0.16532240203448983484 -0.026172878283833307667 -0.17884770098721042286 -0.025285715840167560797 0.003869315129251277123 0.10874361035469566616 0.030680909069396484351 0.080792660894244902603 0.096404986331770400887 -0.077594366318706434194 0.0047768769002449907451 -0.094239557419401209781 -0.1624847588815737931 -0.087945426489396683056 -0.096674463772763757907 0.059955468162095314211 0.037865882748462059704 0.071517250056940345759 0.17540450115687092336 -0.068505284379547087825 0.19102897367009741281 0.033462158667579344762 -0.063969622197322245638 0.096587569733946568307 -0.080536291993254627286 0.13976669704800270821 -0.015889096078427943082 -0.11687666462615912966 -0.064276410538383205173 -0.014587687463317195596 -0.00075771946378102965347 0.11825678763089991774 0.0043330738055184590124 -0.18135153884823784765 0.064409256402953279919 -0.040119251081634464684 -0.17283490142909543885 -0.072276648151293018674 -0.16096958102695985149 0.049594325792363565253 -0.15362947531417717184 0.071249578159552420797 0.028005481168670354197 -0.14000760187141589319 0.16426752528278221188 -0.062813161971755460122 0.038022230988610926372 -0.14314272625586213494 0.31144250444968202274 0.095172809260277185794 -0.16318002796152106249 -0.17090229002011567139 -0.12932633237701793294 0.065122180204191859598 0.16520006099427470003 0.14895450781795327444 -0.098704131756497864858 0.076511636154183729208 -0.079841120176980931444 -0.051656630626562255459 -0.23493612399435254146 -0.0051097821896778378853 -0.0036527554389447379132 0.18515055433435961829 -0.22603484520261554747 0.3221509938444021004 0.094233012570592106227 0.010675686129345423464 0.17471759490385571634 0.01093663725006148793 0.092071536037799800445 0.13783328524542104443 -0.0056556704256688029517 0.13982924484205386251 0.13193656660617270049 0.17187982002475230003 -0.078790360540635789866 0.032901738579282191477 -0.19068963777648226254 -0.061118827052185471793 0.19413407967525392328 -0.036905283239268706075 0.0026153515614723531202 0.090987143703259901195 0.00371938882057390105;0.056511085134846927858 0.29093174683814693182 -0.016175569657447725486 0.44572422265757927207 0.36054768072840359672 0.18614933592685822816 -0.068786748078017934116 -0.24263621935033491406 -0.14795098509557846889 0.13720532399817261804 0.031813444372268448457 0.015473377885032444864 -0.047265602006691276316 0.043785191186478056302 -0.088243081129239675509 -0.060943655141444452727 0.0045555134058250738166 0.2620356789104505979 -0.1551145451400612052 0.046277272921438100672 -0.0202398652972167227 -0.081854553577979105583 -0.071013311160690789636 -0.098888203756860956761 0.19250415190163897017 0.042559711704849567671 -0.062509942243756000391 -0.030863847867701382777 0.16210902004149560507 -0.11893532710886997594 0.085466116592091342929 -0.1741856345995841937 -0.02386871047200695567 -0.29690191502259472012 -0.10394566648015080013 -0.050966324810597943284 0.097512500980271490936 -0.21439014099462047613 0.29094820970206453081 -0.018497908128061780336 -0.034496061646059394956 -0.23758337838565546374 -0.036211380071640562883 -0.037222370924656564273 0.017127778280887837048 -0.043216297782552391682 0.028735460957970592605 -0.0058186083202199923026 -0.052937781822523566344 -0.052350182003980921808 -0.15234234703833582358 0.057585780866090945096 -0.060469949062502775794 0.099755788268733810997 -0.0057199712067543435901 -0.15932080917593513525 -0.088900090157616046271 -0.087528835711624800031 0.071914100189023291709 0.21695419665443288482 0.1678119842893316116 -0.03810215936666401515 -0.09707236563734078505 0.027483789429562928419 0.23992072837684935704 0.1350631294033532992 0.23679582361370521415 0.05915353091861321605 0.083130047287233915787 -0.10233717142185576321 0.022761529605874766119 -0.055019650364556998978 -0.27183258331272303066 -0.074475546359269978458 0.28183188004550285832 0.015534177543763648399 -0.20121385096114205449 0.22212617104433396431 0.0074752506066189088746 0.045355719432962245119 0.14096011639193695153 0.18907518609428847212 0.0026795743787104654363 0.61561351418636023336 0.13419775544189324612 -0.14822086777176826655 -0.1311312805945388793 -0.23914801175329775118 0.3141966274618644972 0.43152885375337129981 -0.27390261248447617115 0.15109324801810442018 -0.22640150153259053223 0.082127767768386317204 -0.031218174769532050505 -0.38643647212443849037 0.14980045952701673273 -0.058495208954040561755 -0.038822511557006361693 -0.093140280980832143576 0.07887128874086395125 0.081272431022068922224 -0.050816101504589414328 -0.017271652222328015558 0.16680675955239540609 0.29098518347222729341 -0.14951857866128706598 -0.14482567752829283991 -0.067549033255893189964 -0.12465444043856861722 -0.057957334377120764413 -0.16114463151613445113 0.087659216738435075111 -0.10384260128014097257 -0.10818391029224200262 0.10807997989150934515 0.42281783305050951727 0.06059914300831620998 -0.040086596924998205149 0.093905529982558882951 0.26948152032812189294 -0.0526685294752026259 0.18199122059216507608 0.20173322241523802822 -0.0066869321464572764602 -0.034315829024802090019 -0.11464649931814790973 -0.13051966461123734597 -0.082958907798925257682 -0.13012755880544449316 0.051718275768158704364 0.049297738979296311379 -0.10755702630510699525 -0.18134124631092632396 -0.007877472025849917639 0.012252413432582938413 0.061282790928519265128 -0.15075312249369338113 0.092619646882689921075 0.12938798073707338809 0.042046177982151412833 -0.023417045089352658133 0.22573987851607593691 0.16020629142795902999 -0.040193774465153729591 -0.16019047293559271483 0.11216956106271971927 0.09051423441504129197 0.14742516762940738317 -0.031037105921921187557 0.28514882237423566647 0.064307310446833812478 -0.23232751817155380958 0.058663675634597095554 -0.10826810651583791689 0.013765908046342135301 -0.10128657690800010882 0.052513838832044294758 0.098066002423510933994 0.048951926091767544724 -0.090834453520160465811 -0.0010918317304645670102 -0.0011474014223249451305 -0.094412207198541792108 -0.13880502838025862711 -0.062312690877578423565;-0.2036261074753085154 0.008242323970571327485 -0.18996974522152657028 -0.02734722937639298343 -0.49328926175576082169 0.0096845868980031460382 0.06864711942721730964 -0.086806199992297577994 0.44472249934721846953 0.0062215382363007293992 0.06480629576778861034 -0.23433268149547448189 -0.12695474402494261179 -0.10436893060950272472 0.15953196344271733387 0.074027507290426342035 0.038027953750779372455 0.0018462394090856173307 -0.064249775836160066822 -0.20979948101953080353 -0.15955495703550456876 0.17409138334991747232 -0.233967613378899153 0.16431346889036052561 0.13933799196430063372 0.21061931579693776717 0.19290456295381816498 0.12806542398516987391 0.026641643252398174851 0.0035778609798318289359 -0.2889407769047200869 -0.034889431680594870655 -0.13307745428635409102 0.1541860557151962241 0.060600341919906076937 0.0036143636622374599593 -0.15297696610738692469 0.023352323550950033343 0.042848882435584503825 0.0014471041069459185391 0.043641498158691442721 -0.03424235742084840578 -0.20340620002033640845 -0.18054295396824951436 0.055128671054320940725 -0.48956497191417996939 0.13580361892851963712 -0.0037889240631273570122 0.11896807097192094171 -0.18065737184312447017 0.14818062308516322112 0.22640790402010216309 0.11095795122522635057 0.11310588690490289143 -0.2683318427040810028 -0.12609062593351816339 -0.23271427940878691709 0.011401121510417637148 0.098187011130817139493 0.022841472289156901365 -0.23027413503667634731 0.04844063697468098395 -0.099613838316968378317 -0.082933065943517070284 -0.04367588980621857353 -0.17439072038479622173 -0.13878429107751968918 -0.072672562951553151822 0.030604133805877713898 0.15743355340442263812 -0.088786273616716926416 0.12639169483240686453 0.051277791704643610471 0.21099427472909879078 0.032060107077235652784 0.1099991922527232685 -0.075534212674426004508 0.14112763933773869729 -0.080217271825381089578 0.13354522705112745196 -0.1054825776021712791 0.19843564627392737409 0.11840062554205936507 -0.12478727565145568412 0.21278658400027189446 0.065011931007687082107 -0.084727231000326141963 0.16671994686434074562 -0.28146202091326255612 -0.11005258833926687134 0.10828132264001462393 0.15494259837620472098 -0.043274080647760337914 0.080984703357900228449 0.066979885740987718523 0.18031206639257033042 -0.046793160551579324191 -0.10485791707243179161 -0.074964122532592478154 -0.085778390451974800834 -0.084348416927689184863 0.072847787965354141027 0.26801585609218858686 -0.032882513475728319952 -0.2205168566584639056 -0.0089519127429028635956 0.20474617620285390229 0.016162488537526706334 -0.18010826954375763753 0.17678670621155281872 0.12853024557252826221 0.029275840631019980215 -0.18752752170324191172 -0.075597666004366168013 0.036100932143245591244 0.19333073611883894172 0.31614408446134739661 0.12483805205529002746 -0.058289460560651776277 -0.096779273642467578131 0.30363121734503362159 0.13473635645430390162 -0.10202395337859700153 -0.056699220540242852018 -0.02735358319534274274 -0.050333320498587491576 -0.1335174809105945104 0.21327492639724260348 -0.11881927290399921238 -0.096759152492605055018 -0.022241636885170768673 0.028573977761281350862 -0.12033825877252476988 0.09249984182306578151 -0.03104745030444582693 -0.14197652725376580518 0.1454392409359238636 0.12530407851071989622 0.072017242687344634744 0.048737005012665882142 0.12587027934975611454 0.15619095102091412608 0.023765166768347147086 0.048433588033344611434 0.067537331329518238143 0.21726960329972885844 0.21514629823844125256 0.065664822820925089486 0.21752663948608366717 0.07595068717060954322 0.0023948011522836390452 -0.079530668054366787656 0.04899033478604799402 0.10629485840172779587 0.12295761884135679443 0.11968559593436381427 0.10297270198858073098 0.24309078814906506794 -0.19781980270446059 0.14346450417760045482 0.29775986122378267362 0.25280662816716442665 0.017396920617978997581 0.096313494361197848903 0.08452096038799962463 0.098747316272931526249;0.011668638904275961676 0.030437579378084875237 0.40065544411264497615 0.0090306920815370964051 0.33024467658995099173 -0.088370777268516331748 -0.02775737608151376129 -0.11517074760025650115 -0.14437709756754610324 -0.0065205101476233451666 -0.070890091531610244235 -0.034743012106587714549 -0.075144610987850093964 -0.25801634995518585303 0.26616047583060387094 0.011453920820679724946 -0.10252400047770612868 0.5167774763613154354 -0.0079610937906484033344 0.058324113193412692457 0.059889885630870623445 0.090848428076183748714 0.13559679234852667351 -0.33332626838411810732 0.29402344186485424027 -0.25842691359093894476 0.040602780953682131304 -0.10628456439215824836 0.061627729030849773273 -0.23001530951551310555 -0.12135949739604318109 -0.083586012575362814148 0.19496717092948720462 -0.26488002489440837239 -0.034479726810490843314 0.26960343011998583185 -0.061380687480721597693 0.083363979013411360075 -0.021588674999803537241 -0.11735851722944881659 -0.20209537627592125131 -0.21984327802610492686 -0.24602926791290946618 -0.51792820539944872671 0.072355942547987411873 -0.15555010514148151501 -0.16530825256678366442 0.27664769565966956799 -0.031961515637656347233 0.11777847353080589388 0.25892033780331868975 -0.25440426188500719906 0.088493997779401312176 -0.35003531098326190474 -0.203086205544402848 0.20895081981495730594 -0.030316105414498507875 -0.2833305973888565199 -0.042818839023576561742 0.076405973735035714878 -0.06317266060800549865 0.34713886384862963075 -0.15030369644264790496 -0.18865240656714579726 -0.010566206924719410282 0.05375985210574829587 -0.0096507918452350665434 -0.14138126412853838088 0.19247412266547117565 -0.27691979588537152246 -0.12425393251493417612 0.061240849917002883329 -0.11726935687091025184 0.32495804741668071758 0.1289125035370145278 -0.028143740339458031552 -0.32559315579658071327 0.17537805268171297035 -0.31910546619130009116 -0.55514198019961491504 0.0069012243447851701061 -0.26149712860373985901 0.47985582896986284096 -0.017692909640687488892 -0.1597957747514019422 -0.23837226418235960002 -0.0758945699919551936 -0.32239969718031324941 0.18777149183616845263 -0.079839884401933083891 0.024417330977007344062 0.14286034166640040888 0.034515926871421062638 -0.14727711862298928369 -0.1754489567196663713 0.37139032719647885328 0.077936494793037852657 -0.09537991648107560505 0.35052469045341710929 -0.027493301068650437269 0.087372097395509371043 0.33595755569472918189 0.0058111048547901198585 0.003789348694496453944 -0.20773417261765117492 0.10570184630023078676 -0.33235317854433604756 0.2068670102313819037 0.016709206000048614643 0.15209849680582257503 -0.12488548801627284701 0.093968533780439109093 0.14589026490927300972 0.10866615241871929731 0.14854082505502302913 -0.14256100148219164048 -0.38725807355573876878 0.0097639628100463470017 -0.18290223917120101982 0.0074782403763661966026 0.075669030518166008337 0.21661894236828305171 0.064308407731132388729 0.12763479865035115557 0.14679331805880224682 0.24920501129997596479 -0.067596903084968087971 -0.16892485285454764132 -0.091380035545149354559 -0.0047293788629754630187 0.23178563701892898608 0.27888751611166007205 0.13636669160051892447 -0.0062531886603787462803 0.032038540410638791101 -0.14623594478778101369 0.1273219624086263102 -0.24288838646070046168 0.090595366434262761257 0.32199479317669232881 0.18902848011225481528 -0.14052492891806653286 0.082218379204562958007 -0.038955856395756709165 0.33400088112794906747 -0.11194713254418546533 0.19050988989110587135 -0.066283758769686590417 0.11488657576484984091 0.26400935386275570238 0.34514213439478963474 -0.076381846929307051219 0.25904703440288356919 0.2009935756497821524 0.091309429283063514582 -0.17299989641884339076 -0.073494980504954926515 -0.003698001586390629869 -0.13421265443946223117 0.0028687620781628151573 -0.053028862320412942233 0.65592147234026898506 0.07472631236788636333 0.098702201482182380654 0.072310722880578062743 0.08067897598723867969;-0.011727294940919546357 0.10667179939456425397 0.017209660458688866291 -0.18106405252928023386 0.22817212436717720925 -0.059523684010748520445 -0.070655290127161540781 0.21847714104718710115 -0.0054898468672015497682 -0.012992906644875592409 0.061809170290852491481 -0.0099108105420368138028 -0.024890099653345171965 0.052113155928935187 -0.11305563954406885885 -0.089022904511295103402 -0.044333994472163656964 0.085882575790673293392 -0.053442541015478295385 -0.21387116968112065973 -0.03881665126200352367 -0.2043065213482485043 0.13316453215511139807 -0.1769685811368847117 -0.00064522266600913411039 0.12429880191336081796 -0.14120961925974337414 0.10321521598823620025 0.018225908329994981727 -0.24535341300676044574 0.082528930790551902064 -0.024765588085445516819 0.019201143381173690211 0.016070829682040876918 0.1225940413843767951 -0.030384332563961578833 -0.00088238381388314884868 0.045151395900286842022 0.27138948966181253297 0.061181728569191851097 -0.03548693743873918699 -0.12418148449176980019 -0.14906964110622036856 0.061762110207435105824 0.084928932781651644834 0.046464585667370661426 -0.12619621834398528359 -0.17121744504452965363 0.15782299256576232116 -0.0437810024385672375 -0.13033960985291956347 -0.073980663733425253148 0.22957450984052699128 0.072312718622955213243 0.0093126161592630880837 -0.010277919968701369063 -0.27598881285102444538 -0.11246802070338740576 -0.27856631277785515177 -0.12737370618190207994 -0.11654189632653230713 0.03504192807351436123 0.016135445698293983396 -0.096334407631393059734 -0.045631738528284136736 0.20722959033410356944 0.17549903086706536426 -0.16889320431968418701 -0.15669534434129697709 0.071826159894730109978 -0.044890712834274086596 0.19861330716759190151 -0.034877460856339678741 -0.24874810471395178424 0.12607940841920217689 -0.090044350230600742058 0.053573401902268190378 -0.10327737535780406875 0.064680513003879697154 -0.13746125965519256917 -0.050541112388589611026 -0.082477810271467597025 0.12852409250013518971 -0.0068901986944884434719 -0.25302858720198262432 -0.16788888226667778025 -0.036088388354196372643 0.12399308984648826915 0.0223488818155400705 -0.13726771082441729943 0.027190761795408087409 0.030950570852482851836 -0.067901455446457717469 0.23267728427929881829 0.18149174507434462367 0.23785069613194276261 -0.00065296711651718908342 0.048321310935842042011 0.13251407399338538395 -0.089051359026749529746 -0.0013729126156429329042 0.041388031137031711104 0.024712234077872877874 0.11366034425992913026 -0.13482632842889194502 0.10262595159084145213 0.35613957915496280426 0.080417075864202824942 0.085751724153121197669 0.10936563511828435724 0.078792289270396984047 -0.07653785638644068634 0.095145914195523206836 0.036239169214840147304 -0.010240414851577187005 -0.12379565385940213829 0.11276074436436214765 -0.11325524911969085673 -0.19013460885834276848 0.017623115123095767914 0.045056531429348102569 -0.2250610229213452218 0.0020811539664706965244 -0.2047826752380610682 -0.1575480451675299598 0.074038923419143323756 -0.045852474323774525256 -0.10825598843095654567 0.067437007602989484933 -0.19504440779754736446 0.12335282918147458253 -0.044804345498016089067 -0.073252062453447702728 -0.14228352622275594608 -0.10972632285944261543 0.10187813888696760356 -0.18567564025042421205 -0.01540583926885970463 -0.10579805359345163807 0.14101164817040262589 0.13467535732267327253 -0.20758885702819188102 0.00032127422739662049589 0.12951400879820731959 0.044236527950599222048 -0.0070046324788953680252 -0.29188551520997746413 0.10387129749640054699 0.03647632334638325341 0.089473296411580638399 0.11509519330315053087 0.09931458641045812219 0.12543483674697722408 -0.16223167435042801232 0.022841922809951658441 0.070490189067197159267 0.25657733069497851153 0.14261483769440805314 0.02163429263818371362 -0.057883585308976748252 -0.096886176180302735483 -0.075708342227150671189 -0.18405951681776133722 0.071813617471026547356 0.10383481296895552548 0.24366781775651855102;0.11008688461362538258 -0.0043999202516847874672 -0.11872271822778839023 -0.32797649155711916524 -0.13204751758793648042 -0.26414033986746404681 -0.048693127125712359904 0.22820592977615700159 -0.057706143328821471461 0.032794944346581866856 -0.02858585574405275373 0.14011203312258788123 -0.0002293904551648479756 0.056351657017451747822 0.070058883869050278537 -0.049267076668072985746 0.034389974594464925439 0.063891782367576088753 0.20068046038129158659 -0.026320844408357885191 -0.15112616067154405197 -0.27856930164735943523 0.13934268080415898594 -0.15695181163173466121 0.13600992441380135856 -0.37158555291196276871 -0.048521603845550112522 -0.061842826427535003975 0.094192465213263826262 -0.036161815524060468563 -0.070531114189776672463 -0.055112140952837049279 -0.2237236736287515626 -0.16925542810898192014 -0.30182276192487622613 0.10596946826818583187 -0.23942594403528413838 0.011306972540686025669 -0.011310075978957011972 0.17804454927309418255 -0.12361310475586946567 -0.036972256663008906674 -0.15788981492266654372 0.058115215703070828568 0.092049632593621213972 0.01119383787481725151 -0.040991025957372209665 0.059487260250158539854 0.17566279390692646212 0.22078778533097576098 0.097840893509210227763 0.10834489724807555566 0.15907539242724774708 -0.058637024018660444113 -0.012190163054070094276 0.12179804568492678951 -0.041895874884603570565 0.058450378388574197874 0.24149770977875276157 0.19780558645667248308 -0.092741417076591253776 0.11118803682838253322 0.06360523435525805569 -0.062820927234087942104 -0.084104200834470427273 0.0047537540616297323595 0.29231436115609815696 0.14367858066743760537 -0.0598314393279571477 -0.043586005947372760683 0.014696270701841325501 0.10302865500672039878 0.10509853837150631706 0.1269042955409569462 0.43313721390751352969 0.012350859949736447962 -0.056237846569083489723 -0.21130921021102821999 -0.13713800733397224496 0.069424374817303222129 0.18625539547140612662 -0.18694017122682982102 -0.076669508515074952237 0.010042079068457467755 0.072975326340456780905 0.20492732796726789712 0.019302960655696147635 0.13867752932311222525 -0.034969866144703078137 -0.067499275167598446479 0.12218019452713588247 0.13938096752360931707 0.069655144093420939821 0.27309352177684970142 -0.22563143856395428966 0.33070808304943943856 -0.018276637252709750786 0.10192382857827700371 -0.15904664502821055927 -0.07994856649002758664 -0.064390380712546241293 0.28465862675361908174 -0.17909393174188431574 -0.14059574085723058889 -0.014209721315165294714 0.3088952245097517646 -0.005021450014510428668 -0.24003567052081489774 0.24971340406463043982 -0.085499651789535890956 -0.18935869935201005143 0.12269083835117683412 0.069469673152563735097 0.14671665404758471585 0.11489573014273872509 -0.08076465276595638787 -0.40080324063867650564 -0.0069990993529127467146 0.16875925501385574679 0.00458003817772834141 -0.29842676920763355763 -0.21577786212685934331 -0.12721247925161349723 0.099377106835138617758 0.050508087126787386267 0.18435861084145338529 0.015447518943002835901 0.087221319338155592349 0.039857052564264916494 -0.0578474615525787772 -0.021000302306624623466 -0.068912824120314658538 0.10716280875303052511 -0.0020671683910053369193 -0.024487286747368046391 0.24872110129645816357 -0.24070322263300097942 -0.021554981997635842828 -0.050201741008295060198 -0.032323776354648697806 0.10488988431026807779 -0.13434170474055426303 -0.16825499859670597913 0.0012269875274691019462 -0.11133339368049305351 -0.10350572940307842251 -0.17705736381152611947 -0.12072967435788783952 0.12022620153810541221 0.16739413188776647301 -0.096475662086607516521 0.14324501007784004591 -0.092714921174886194555 -0.029642483998856720279 -0.082224802641451627538 0.072385361844992557323 0.057462638268476820547 -0.02503087684533092383 0.042011694137961644313 -0.001339410001210218637 0.19123695085959324658 0.22428522449361495972 0.045414555828393238235 0.012092083419928099236 -0.10757126565614195945 -0.080829738286130409231;0.037297272671053691151 -0.18730453640591895881 0.11064543390845414661 -0.089143385354312265623 0.23574279859471461429 -0.275198470628481906 -0.22621346455556262667 0.14705699019895615565 0.22289305189976474364 0.19622437134946160708 0.096233878066533162787 -0.0050785165857642235177 -0.046529932486662775593 0.15312827562900171996 0.013960642289351848574 -0.057565165052362393672 0.015640065832288118503 0.3615496066456117541 -0.11469344570537268191 -0.038751503426644143269 -0.024686693913316366117 0.44832303538966467027 0.0024226965963042787489 0.10475739926342049479 -0.11157784568347126064 0.18796174984317903789 0.097625587219082973767 0.22722019340494609141 0.088061272090613817998 0.036291977158844551665 0.078759890972149956823 0.053004384962635826828 0.049239685484773490498 0.023092468112068664787 0.0083688773211015744097 -0.29858169932518696665 -0.33076320314627521979 -0.17693736627145090212 0.21617704044777805161 0.16966875698000988271 -0.070682198219958178309 -0.12232478061403624647 -0.13578536751868813814 -0.095171480303810784829 0.17497820187876858555 0.12202671072020729315 0.26058252025256217754 0.039022963790541896623 0.23813766297701491337 0.32304597548719615752 0.2073872019537512934 0.43465277356662745945 0.19556716153209321996 -0.057872373489888710718 -0.22080788906977641406 0.22838572999912265526 0.09395407927559414063 0.12647254719970585368 -0.12910838302341332007 -0.16107476225996636421 -0.49619243789400835354 -0.081351206395222003254 0.090230158753386621728 0.22943687523405545403 0.082606306719676059203 0.16311766146229608743 0.31513304664025915125 0.071236751788502028493 -0.13468457010560308529 0.20778672464023983935 -0.049378186749622125784 0.23303837625992157578 0.041856616845622661438 -0.0077915841543456081791 0.074699520497548924092 0.15663761868782488662 -0.010618709626662344025 -0.25689200152503632868 -0.11737192388819109312 0.10621819462012659085 -0.052728210591736546231 0.21830550218764971371 0.28290276417171195122 -0.37288775398167506303 0.012456274360671194118 0.1280958883430183548 0.20555045595273960246 0.42071584037390918898 0.12264768239050716225 -0.26903374792931528114 -0.033741658038301501621 -0.059808833750580596422 -0.36869937307626554635 -0.11329294295828851169 0.050251125160583304252 0.11488084547907989608 -0.082812139896497868885 0.079743235871531037429 0.11019259712389123385 0.16180181783229430348 0.052258040320929843858 -0.063646738742510589049 0.10350267136094866427 -0.13167901246386287673 0.24603401556278772788 0.12799515999972208014 0.21101384573347226059 0.17101114972563230543 -0.085880354544659240346 0.22555193655104024963 0.1994361665243287729 -0.17250331628268411599 -0.20095500634398730244 -0.015085657843168346487 -0.0013297495483816576534 -0.08933142456629486472 0.11592986242361152938 -0.11294512252784398576 -0.31225421061382829802 -0.35817254338117276991 0.023940102995975480471 -0.15534493149674705181 -0.17786574404703547891 0.17809303644354002039 0.13152151585000632084 -0.10088241097453078121 -0.13431766943047465657 -0.18683043004353794281 -0.0095809604867281711327 -0.38932234067675236533 0.11422442082365513727 -0.17641958520527192822 0.31402240546156523493 0.16901167865401509061 0.0658563133142788526 0.18271629794720178896 0.17630521693591796883 0.40839085232750821364 -0.114351056540124979 0.50588394362466337917 0.40828713499152857747 0.20596735080266528883 0.04836783468143478204 0.39572822962451797979 0.13345880178741795219 0.039911832006765818326 0.14480614023007426505 0.011397425962559989271 0.077942011650030521008 -0.19592203151901485536 0.27162229296520468136 0.10847914305512058875 0.32754008182204819022 -0.11463451084915836364 0.13933969642858518023 0.010069535971962317172 0.050968831073946736787 0.079239888024962165658 0.18094128516223900727 0.1579959479772498343 -0.025297965703121701869 -0.031005586462841801254 0.18097549213323441131 -0.011461931672351495515 0.1994044695446403892 -0.23520149358418204755;-0.018822937203528476713 -0.065490458846455948394 0.23959598627303285712 0.045912850962306503422 0.18867056604588286484 0.0019827790766257678487 -0.0066895054102355851894 -0.08793987527559959938 -0.13757493433246989478 -0.062735074851654359929 0.16600986115999563641 0.041775345381565125169 -0.14093651191603395745 -0.086149414801036938716 0.30499194512998117901 -0.12646880019298362141 0.088184189617702732344 0.049749451392414503759 -0.15692099222316868712 -0.21818575023025416071 0.14068190642068209573 0.089710318076957160094 0.16348854795400416529 0.021006516154115993655 0.17037760748306735037 -0.010190723878283094311 -0.023035022963895705056 0.023224494647253055013 0.14243839268806976484 0.14379814421970588123 0.068250167174345552357 -0.08414464722783809858 0.085798036194549315292 -0.029619160615909169432 -0.060016690343352156745 -0.19531063909291104808 0.073954209425225875263 -0.099777690503820071211 -0.17650353451875130939 0.068687152332371811947 0.01593302865830879822 -0.19360953665680918911 -0.064082282943612206561 -0.041409420255146114909 0.0026265015399261001927 -0.24867143902389302057 -0.12318055310469962216 0.21567951410107291665 -0.18072275777736435121 -0.10824469198275174509 -0.10336504570297123939 -0.14318916678162996181 -0.272262267092851451 -0.38496580389417356383 -0.29108674267673012581 0.022980196344430381394 -0.12236319471154480376 -0.16179124596730151686 0.27338987939478370803 -0.041077779928747781835 0.21827901213103464984 0.01481837430917621462 0.023083654865733313488 -0.13575615434824112038 0.27327652139858532587 -0.00046361875471033833773 0.077994765889551773141 -0.057091814138491688013 -0.30604572469439506044 -0.060227108791981905089 0.13099982650673089313 0.056964878788377519558 -0.24220302780370051021 -0.067006748783768735334 -0.13665710889225235469 -0.081659829661574090398 -0.10140883338511602618 0.058221763822834574076 0.17512484254245658244 -0.33768146228816392496 -0.19268693686749238658 -0.18844327714289768605 0.014477137229904376084 0.2229806468448993495 -0.15371110594594353249 -0.053345573779827910876 -0.018723359486155152775 -0.069878586851413168612 0.16410827200736649578 0.039934546632483872153 0.074449029679452993769 -0.30417888057578795769 0.16378963901199750097 -0.07568695628543826992 0.00073113430964846792826 -0.38200780508265747004 0.049300214440800363414 -0.17620748513189474216 0.082453219810701569581 -0.15954921495539400866 -0.076114982591575938708 0.094960366616587355004 -0.092772087523496360451 -0.053039835963260936746 0.11904863329986804799 0.25745887031539543832 -0.11109762972474129805 0.0031527724752615574055 -0.17231559861980844106 -0.038377687800934999485 0.11116191897271129885 0.061660776216508818293 0.15651067083217040654 0.026770610893107671391 0.078451379466678919372 -0.43081842123383429222 0.28746699318085217056 -0.23866568398884102642 0.19255605844280943018 -0.0044934704099852673664 -0.073249038846794442548 0.25735310937512201335 -0.12562216237431780841 -0.077385782332049901644 -0.40661052123976842987 0.032739020935940416068 -0.057025436257847117449 0.14116055141625105662 -0.2374244265730356962 0.061706886687178337525 -0.09604797117278746077 0.15522719825746400524 -0.050219060397411169339 0.12932863770301933348 0.037381466676138272454 -0.26790718518124284619 -0.018022747564464230985 -0.075469281237264498885 0.0099385723051125390848 -0.073063170305091740264 -0.19558747558191413862 0.08871619903627853132 0.048989460359182307458 -0.00957189565773894184 -0.031738553853850708097 0.10876807422545380077 0.019493111816620129623 -0.23307585583681655894 -0.088487256156351001835 0.12943814247918450366 -0.20686316570487275901 -0.065544061518217636153 0.012379926426654567009 -0.076658236024357784277 0.072870341555746009909 -0.26582770061368871106 -0.047254408336159570148 0.17406600036371555618 0.053458041968441047387 -0.0042754682967545629135 -0.051354007706116339138 -0.0058040111814736082552 0.33026100923555951061 -0.026583772998471987686 -0.2934468992155785938 0.1746168383193823781;-0.042500192688390073248 0.016779228633307850804 -0.079569563601946211029 -0.18341475935022091837 0.055402151382879578911 0.054287558487356009362 0.077460381772568712155 -0.065238984605707261988 -0.18306847631013684063 0.15691255903032580443 -0.19409751422079168925 0.12959654036740947403 -0.086148429454897354485 0.16127068258090565545 -0.06907404855834431423 -0.025185895024975320233 -0.10199907630271658199 0.1328321226037302849 0.17689312425141029417 0.11488412016400992299 -0.13170964366511331289 -0.07609090654992914371 -0.19107347580529346343 0.069137836926764326129 -0.070122248568514719547 0.014824187121273620441 -0.18775473656375479825 -0.043198423970650892678 0.19788794420921149153 -0.094693276740034609817 -0.024375693923262942153 0.11087405050800425155 0.047413957837228529191 -0.047317629457629573064 0.12966022790001249798 0.25458464325389085214 -0.016239236761050258179 -0.055624517133337367247 0.26102683105158402954 -0.10237807851766879408 0.11576407157976176254 0.19339092175637670468 -0.10152298316035088255 -0.095740851713896402142 -0.11538765850356202947 -0.0059741998598342692384 -0.045096722992808001285 0.11688727533956838611 -0.10227078486257230872 0.17497811200408014409 -0.028223934079464052527 -0.098137931057923663558 -0.083452654318745045359 0.029040202842058937538 0.15643555376753373598 0.055788867504109461437 -0.049096260773314942538 -0.0078888535656826443143 0.028106296081061389602 -0.13006797366711467245 -0.13416536907513065824 0.062637564331050124555 0.077203767396856623484 -0.10825297248018581064 0.0052535897787873153675 -0.10626740198356093847 -0.12109025466974557284 -0.15555019858654409171 9.6211222088336129099e-05 -0.097381141095363346616 0.22643350748823465324 -0.012282438239570203642 0.033065298315627031367 -0.18522781966532925191 0.17230883654694578722 0.18752414368765424335 -0.043710945079836228955 0.037165325777066923751 -0.11416866399703327895 0.030734968274890452078 -0.12429609382330873701 -0.032884626068481997985 -0.09063839771317251659 0.0047273235324975645608 0.11865112018918408388 0.091947747512273830806 0.014685846408820557932 -0.074081960327840312708 0.088048427998593831179 -0.23637951834499165704 0.0023807152055937870483 0.19799812869514199498 0.16363065049150590791 -0.19571739356427414469 -0.026758863955944907354 -0.046721538455712481597 0.073146549603664581807 -0.18098540155452857991 0.30104329349707198427 0.15032819403243338763 -0.10688990265827395809 0.0032600455651208546694 0.019968738827542683451 -0.14450859249184405675 -0.13477717495337773745 0.18049228394565963729 -0.14188164636591146794 0.18088096616500654035 0.29812593875724024972 -0.24399052469241211405 -0.08202532063036870047 0.15093570075624188065 -0.15551366787095768918 -0.07387519582208579294 -0.11957546270565200253 0.18234366186760828099 0.003557578481421526384 -0.22488409107405588072 -0.021154358445094719604 -0.15066811592696352506 -0.053881751683460363256 0.11070049507700990832 0.090685404818792100801 0.059131838816153976801 0.0017006252087415525687 0.23894056997288251609 -0.19027860740788327121 -0.042569924757889017475 -0.088725936709802832869 -0.077335841871638569267 -0.12059675721492327249 -0.024673890737308249582 0.065930851579042451527 0.09075778954583746394 0.13227408469804008417 0.076289272219898632277 -0.051995895590345037052 0.018962326769161624851 0.094205220008907533669 0.18183597269436013733 -0.022659371507385683148 -0.23048706532879664755 -0.20763192301505409287 -0.091823040727939730932 -0.07308176216504130851 -0.12566802635888221773 -0.10831714536429849771 -0.13039317623561405557 -0.048938605899532278132 0.11083249572354585133 0.088065026550132999295 0.096295544303233338024 -0.070965999118720271555 0.013102183405838036673 -0.1251602592609095399 0.13545212446207699486 0.20955819041617440579 -0.051020360845426659946 0.054060728083554103474 0.11632129803635610221 -0.12283197413173255197 -0.020711014225088322793 0.016353305082845714935 -0.031730847734592268483 -0.01470540957008445275 -0.17769568059385448811;-0.0084706649076003170951 0.025397222367221406608 0.24810400460081780127 -0.21961806538183040183 0.16175317313441373024 -0.14458356105351621856 -0.084729268122771927985 0.15601418132374758607 -0.12158182001025891195 0.16613504789609137569 -0.1068912179794985623 -0.0029412453153574418668 0.17275808251381166714 -0.013325934025355262377 0.13842934787064717361 0.17954942092815481813 0.062234563404795675834 -0.0086202640167379503133 -0.20886061524892057806 0.14391593081976145063 0.0079597966733046497667 0.18137248531410524177 0.084364575161421234695 -0.17450624185898155893 0.16561115484737279346 -0.024938588883769187421 -0.088729091004664153997 0.030861706021149515333 0.088314052968897507889 -0.0054775582965583659648 0.043980387378497368123 -0.14584605588937504805 0.072155841747871485303 -0.00029277611313815240113 -0.015346665428694051397 0.067737641462080985799 0.12979345615569617967 0.11998299686188473867 -0.010922492032948902946 0.15922662420242333914 0.018457057887201980956 0.079302863403201695469 0.20531180439977261831 0.041154859120850678655 0.050503637409025095573 0.085162389512099895272 -0.084788092425173766653 0.029899485181253331739 0.19717589259044943084 0.044419399922299859784 -0.070461983169158415308 0.18083135172455122586 0.061233396365907168113 0.079057622321825615774 0.21581409770977871831 -0.043330425010202844316 -0.0063612491532194495245 -0.034437988676835361301 -0.13746846484000796451 -0.14167424456650815068 0.13470437450148545211 0.097087679926691913823 -0.0015201170383860023588 -0.059543078492156620296 0.085221441171394879399 0.067223012139868656978 0.13208160023142190287 -0.025544646639027033391 0.044647575440518269541 0.058796404213303316011 -0.01435596009844112772 -0.016655943420794152438 0.11455439238071797592 -0.067563038764511640366 0.092112371382121915886 0.010070087950111402883 -0.11653833372054671347 0.052243130241984146733 0.14945233926532944246 -0.096090908958591819689 0.0057715326377533182622 -0.061263885477395502166 0.060236095625818025789 0.16809652882592202028 0.125626177470525624 -0.1078286150319529707 -0.11213711795637078261 -0.029037895048006110571 0.06831558002347387637 -0.030730852570082099057 -0.090331512367234953476 0.10623288042702731804 -0.045877741515246081572 -0.22058527428250812585 0.17186912496278194951 -0.16460602534186552504 0.032250683770663368666 0.1432871502114879958 0.32031736435957514075 0.18440039873339100773 -0.047942722314337535283 0.073659225632158931152 0.050133171980551886893 -0.0067296046628069934592 -0.015665207239780470222 -0.045164043933294650834 -0.077970767112916714026 -0.24664676595185527908 0.13003294833241041406 0.15064083522313798102 0.062301983848517802911 -0.0014517578744319601346 -0.091276651437603772976 -0.21141607961085495671 -0.23031151009086889281 -0.11878885158001145639 0.16977925748015587626 -0.19352661491398415183 0.14224734203378819331 -0.056024171087160991311 -0.095466221143390386783 0.10862506144370404071 -0.17094721261163128845 0.025992919148843177113 -0.12969063986793197274 -0.137855352704302353 0.027488841760835980993 -0.25394255591678216444 0.052966285966320254819 0.13579551709060838638 0.23503568544488817604 0.075975593906409996658 0.17803745496937153914 0.078676210141939539877 0.023045989518036741339 0.17320594029273914116 -0.17355635273713515554 -0.0447725111297493511 -0.045944843297072129884 -0.24173808046380221293 -0.086138737313176116928 -0.073425389928562817543 -0.046931067373909972351 0.19872211681581392062 0.21316620756468510067 0.17675842652114259757 0.14824084336343412716 -0.19751150632851974254 -0.0024335660317849408529 -0.0024929052834887586304 -0.062951050247550502381 -0.064640738913037371072 -0.04237121856573324713 0.01138939066204794695 0.081309727550541180396 -0.17122056717096750811 0.077112166428095485493 0.018699049640410067563 -0.1260071864056132307 -0.19123063213058813514 0.024800697916006222282 0.19370863447732522555 0.079954959556831170508 -0.13470965063232334669 0.03350435121537784916 0.06097625569220174041;0.12637005667374090478 0.13042721136990381714 -0.063485136526369834176 -0.24590596013740023684 0.06178758974587137548 -0.10297114101078304327 -0.085264071288927767434 0.039598081996236753066 -0.08868247476532487017 0.011723366792642518283 0.010081932147735461064 -0.15073820750176480932 0.22869075883216724576 -0.067197280506694809232 -0.0031736277501385069116 -0.10965745309267589669 0.15914905936016932042 0.18822176402778426074 -0.06772310506147144471 -0.090906206449885562648 0.26837413911611607276 0.22822777625396467593 0.14361631163373486664 0.15632772366496389127 -0.049699542440649564778 0.093708110625726231957 0.04774615742217402925 0.13004929076066440441 -0.31774944676462191229 0.057559446560415478134 0.019330975725772497897 -0.0097309342757010211522 0.011608759770507490888 -0.10940572706052555108 -0.10226863957615089928 -0.11251519247351632336 -0.055299182993166592914 -0.094518930352431404507 0.014469081704095370505 0.14533299046974881841 -0.061375142691849626786 0.047524030764343166977 0.039008051568645250862 0.023550944846952748257 0.049662965979538724326 -0.2160501336696919461 0.2991545903393517114 0.018220299669824545352 0.14925322328555579166 -0.085559272900170582621 0.12380602643784643924 0.18580717725563003495 0.15737781886149299071 -0.017714226751728109899 -0.024407467463160220644 -0.040457257706120436369 -0.20193793365487427982 0.088941356286997952374 -0.036926702055901941546 -0.29446861654306533129 0.073859705302305886376 0.0045724816579943193887 -0.003063834814803008573 0.16493854574738281427 0.10401554413520344711 0.1157189529916600873 -0.18305169585738836902 -0.020003244297130018392 0.11582576791689327966 0.15887784670695395683 -0.0015650070455537059763 0.067524751961438408965 0.10000544170306033265 0.073114593028658095286 0.1021636863285556307 -0.11347592093616118425 -0.26441843568707368295 0.14881779630446018148 -0.03147741892870710434 -0.044469118899188433969 -0.10461927130176715273 0.094456528804508568808 -0.096907166431702704279 0.13044268197668867915 -0.14896821504589952134 0.18374533456794192587 0.081419397449818270429 0.11803802945575490868 0.078470727193450592885 0.11863191874752485044 -0.091207969617730616507 -0.07466206322052683364 -0.1016567693202205247 -0.1969626422532951282 -0.10782251914485083133 -0.060754552519235227592 -0.13336231670639975277 0.0204152713535582786 0.22859955944793594607 0.12766200472330499482 -0.045543830813854761785 -0.14536713291982186758 0.034565205310979896236 0.16056737277578059242 -0.026241050569027112027 -0.23885944240101963931 -0.1997604917483476461 -0.023789968704815415979 0.13828129472117173249 -0.059834745734554703467 0.11489836321811197628 0.04495309483498241554 -0.047397862666126409914 0.01948254976636682248 -0.02703286347534084727 0.011845397408473713752 -0.046800986226593919992 0.17278217053511463197 0.13490167857460907963 -0.060437923715170593919 0.1409483666594325002 0.012860801110830381161 0.14040071650471377951 -0.08356589896589203259 0.075720616606537033411 -0.24471187772272431915 -0.18944827654646537174 0.04936580479113061859 0.0035332856822735542179 -0.00035494073144741802861 0.055862975545548136658 -0.010047924616061390882 0.081125572628539852071 -0.021100723648175064018 0.037235167096207333337 0.037564494953731618343 -0.003860777252485365213 -0.2534312335488023149 -0.055564855927247761014 0.16279869850751249594 -0.058314118981773549466 0.1554060708270997293 -0.1831947027651519011 -0.12960220113920872809 0.19219671782563077511 -0.074933852611156231971 -0.20523481977286237021 0.047616758109261449194 -0.0072062578236270213861 0.11740328452127775372 0.0397552309630023748 0.056873374245152041873 -0.083871699256356194163 -0.17866929079869003916 -0.037417366096575373213 0.070373555823634595385 -0.011527244727162860166 -0.29947713922085056337 -0.089506744863978526805 0.10677873388493590301 0.15174662259654433938 0.064672207680938439966 0.16065667071622846684 0.064708447510621741605 0.17062008143021570317 -0.10699660717306848368;-0.10975061699872590282 0.092799080785500878688 -0.33560656570435731805 0.19573816783815989329 -0.21558716323540477733 0.0070233746028328415678 -0.085364587422390142413 0.33270442863414251278 0.22591427476934627938 -0.22092714214600364664 0.067784961967046836184 -0.11814112200310843137 0.067276298427161651539 0.11892673882666793261 0.2664160552029294915 0.33243756558479720109 0.052740012232904816269 -0.036221095809754570716 0.13823689747021924989 -0.17436973794927346226 0.16676728087040387782 -0.22695649527110239863 -0.0061765691910453703051 0.17455750784167475831 0.28975150252912823534 -0.24504072809165280966 0.1303989407456523919 -0.16458538583101509079 0.059315903988737636587 0.21362324465393453532 -0.21657874531269813434 -0.1799881664481613186 -0.050283622024785458449 -0.13727456601463963737 -0.30978677768951617955 0.1047385239888369568 -0.13966144823854381718 -0.00086066011349962556753 -0.23789889265937716467 -0.17802639305400952408 -0.36439789596498234348 -0.1416321967461727227 -0.095371742533726960867 0.15036162412819137346 -0.0062158174231736144227 -0.10110346921956916977 -0.032156277126093132934 -0.0078415235093890860163 0.20634238853455572071 -0.25115533796972350222 -0.28934569064347870349 -0.21385933162402345764 0.30878899133520359976 0.22756542355276587752 -0.22716178281702742447 0.32711675230056863617 -0.12708394899239833231 -0.0003019056507451278043 0.051188908110316663769 0.30953146580371593277 0.028897644824692109849 0.10063182399581468984 0.061147857836414382104 -0.027031086377800751797 0.0081355475693876896925 -0.15452720917758155927 -0.086790772064084711901 -0.078478383293487663508 -0.08804015137533394153 0.19377735946248519916 -0.28907311441692529197 0.24600246462379057877 -0.55796540892974033632 0.051048309967461312497 -0.012428884656205735001 -0.00047998610990587775582 0.11653327622498210747 0.16546474169710700952 0.25214776100197078268 -0.13901696130045754218 -0.082498227103142252048 -0.084965701034169949235 -0.068819729357808404058 -0.049965506914800145166 -0.43314785631287244794 -0.091425031066222420262 0.015315395220451725328 -0.096381752899933600953 0.35356792115855123493 -0.24590120766584222523 -0.067033096077744908081 0.3517265190269618369 -0.1675927240344428637 -0.031549839981467465988 0.23092276127519936746 -0.13070996986590380229 0.3466763703345819847 0.29433381554189763651 -0.43271165588766680177 0.13740868522052243628 -0.29380016930495905791 0.21861713009924951812 -0.038133245894161907352 0.17843294404363835293 0.18348733186521884453 0.14794645485389826267 -0.21165400468499070974 0.10781330319790208283 -0.52584054220269593749 -0.068710034607980946531 0.34922924315790898619 0.017282249166750245084 0.2486839856049082309 0.37524267609925515687 -0.26676027138441271713 -0.45410662008006835721 0.22127161737363784666 0.12476311258371000634 0.069549682198460735516 -0.040220816473947075542 -0.074876235257066547923 -0.15834417676573495082 -0.25380895811948528396 0.099527905121788939891 -0.13019509136591450593 -0.13776205048843645495 0.28807814125124425741 0.35123780334514609347 -0.13548495203031990508 -0.092838714088503054844 0.057825642400206524185 0.20610188278835764319 0.34768343998826606311 -0.088780133203960776012 -0.09226607292162285201 -0.15090432773507439501 -0.089698831186267952154 -0.25984889209640171792 -0.038994856952014010643 -0.014008588146160814991 0.077834833575078463119 -0.12931356094502882703 -0.044392833802587433611 0.075748184353660180657 -0.050135394866409235815 0.35348439611835746899 0.40470958702064530055 0.24425721798487165515 -0.10721528170469633856 0.15834685708973886276 0.080777387625619451184 -0.062465855497638000937 -0.19546898392671013811 0.059701091133203085248 -0.16036339142061006857 0.028553714994311356346 0.18525991275622172294 0.010375571647806551556 -0.11042486397254439034 0.14266287289372778235 -0.16780875454975213712 0.13320191242615198046 -0.22275471757249218352 -0.042801251056041281218 0.014262563019447395754 -0.21338842788307024745;0.23095099761682702511 -0.19844455225085971817 0.16665984157779259456 0.11257175890125087347 0.13682511665226779196 -0.10516878759608397353 -0.20276851674343174259 -0.036264175672785912974 0.26101021272561375497 -0.10842699917192825942 0.14699943228045100896 -0.11902600590157541571 0.20880712578007468161 0.060778451644902094231 0.061214162009122816133 0.016208802106086404871 0.011290820483659879531 0.50439012846106745513 -0.13006629779102896194 0.092534861684486727218 0.3380720823372097561 0.11668332327754560307 -0.140082950447526694 0.3544403307220967414 -0.12030655301294423953 -0.10608627402897598258 -0.038247901942116024898 -0.10952409618081632159 -0.15262331069554205265 -0.062322039966049277981 0.13001806325346082494 0.13732197610472685056 0.010973515302151324452 -0.12607147307830346428 -0.097342330504429155913 0.087788118809328422043 0.027944199941326710451 -0.020562117066875894994 -0.047891700134392693744 0.019025337298630814326 0.036250282642548703471 0.089148395205359651228 0.27635335602793825727 -0.04746215257390543063 0.035712118956860113006 0.14583693328637933884 0.15189645200301890582 0.047788209259853338395 0.031288309504139445727 0.022038141972858270312 0.054751879939961889399 0.016391801401643424363 -0.080721559460658412477 -0.23752627684151647602 0.10736134202881929267 -0.20530548642859941522 -0.004294880834175193382 0.07026355910981707531 -0.19119369260823756984 0.083829859648423862839 -0.073628585432299845093 -0.029537371804958436478 0.13808416969768982918 -0.0059599042984396898709 -0.022576044817202156612 0.10196998191797189415 0.040380359787216685286 -0.24287877076289515754 -0.074576396398403119181 -0.076226666146249816292 -0.20331820233684450017 -0.23006368600517423939 -0.064064543930407599759 0.13715789265453859347 -0.0014364091531939536528 0.026993708635379160682 0.15323743269802284073 0.20167172037410049934 -0.029936384464830771007 -0.42313004576862445205 0.076033889509476038082 0.060498829177653250244 0.2922253153198298703 -0.084117327677428424537 -0.17935596574175699525 -0.0062235912735074706836 0.12233609445555436446 0.074321266200918140177 -0.15758178999309729873 0.045121521137527667578 0.0039383799889494584476 -0.22541637768415270782 -0.04219119009856565905 -0.068098128548325989606 0.093446709177789466505 0.16742428768592856891 0.04327143022050131127 0.067346154505777994226 -0.11321600786906292624 -0.17154571895044287699 -0.047674731215765847603 -0.24558487847088208977 -0.022622510830759032935 0.087426908252581481129 -0.1205917539565296015 0.25475755956550694137 -0.056797063547269523165 0.2539778191878202529 0.062448975391640765276 0.26398076794058655814 -0.19923131992459403028 0.098147291262218314123 -0.12577723378374008889 -0.28521830469824394072 -0.15312048109423431752 0.10071878211391978308 0.12500194045332421733 0.022285469657613937722 -0.1901914950540810334 -0.082854532432101168915 -0.11838959700791847063 -0.013562842431232000062 0.17510040661341905177 -0.14218975758366309003 0.21722654863452867113 -0.10483983573957243729 0.15675740407348479066 -0.11901766513240756573 -0.102031482270429949 -0.016081302964583637366 -0.0025214954641105333244 -0.12739423859077483869 0.053671274997027396125 0.21829916423524453606 0.044836243820617509293 -0.20867214278547474571 0.32538209401174666979 -0.0041186472006820833841 0.1744280022542473163 0.082059898299005951117 0.14085876764467319955 0.051536453757646386031 -0.021483200822198580959 0.033197791803686454992 0.27306239668409820753 -0.14422994687354689924 -0.013035397998910576434 -0.0032700732269812168851 -0.27043733829919774925 -0.0070601414027811129626 0.054896521836739389788 0.10012366608161168968 0.028763280238446743697 -0.16200651299557716767 0.18520901334152203854 -0.015870171904271510727 0.018958251229445624575 -0.0269514034670197411 -0.081801482283781479232 0.33644558467918517231 0.016491407377385386424 -0.18768735684596643543 0.14979965142298498626 -0.17882712149656476708 0.16685593219321628866 0.10346528478351776914;0.091216773262376343867 -0.17509070441132359996 -0.053969494455276711964 0.10707818462402085569 0.17036591330685899037 0.095684505274229697536 -0.01567394989863460375 0.1637239252770490705 0.066150317603156857937 -0.11515677923630365798 0.11160129706926652515 -0.0043282953201886440603 -0.091076804773853797803 0.058589184441002840897 0.27761623895487536062 -0.0002839831395415621379 0.19633168673645842728 0.023423814327715390682 0.060307918553538814033 -0.035751085307929447721 0.10605786243270784452 0.080885759895488656968 0.015770968375984219245 0.14231823382139335843 0.1454579359354081225 0.056257859402699880724 -0.024147258257728676512 0.23637850998484979947 -0.1263301994344329382 0.088859377848351711604 0.12616769048967585443 0.00056803238316211097925 0.074893022652906801606 -0.10717727069433961862 -0.022943731203499968807 0.080879095275433632306 0.14827676743817228 -0.087733237336003536133 0.22318863805163152714 -0.014624711022339940969 0.11719175561338709968 0.10327439605517357846 0.07963045957136380415 0.14984493118611058593 0.062712366419461901268 -0.25556161900451257463 0.18117094044221876414 0.25955234620134615131 0.12137440703331239811 -0.1703078750673621411 0.040684565592912017018 0.056896193497836887454 0.11076721008189122086 -0.04866245746472981637 -0.040949801004790592485 -0.085596630816164268052 0.20663398009049593895 -0.017342382747469440446 0.057907259248847472999 0.035692379397549309217 -0.065003323047682207148 0.16978972886605137038 -0.049868787727790436781 0.19522150051212908139 0.14282317379364192766 0.16044919036317248362 0.083206351154608323983 -0.063169737167966560909 0.04281775721108645183 -0.15745620112757383047 0.16845659798094936299 -0.0012389635883763103902 0.1737776897138712251 0.22997799161491208619 -0.082497501347808255279 -0.074115884771400505904 -0.13008916145122451091 -0.036423981752407318113 0.039578687654849634137 -0.045145625818811582763 0.14686682046167987004 -0.16287913761880506991 0.19885720383620883456 0.19840310459301174761 -0.1447335428598615914 0.070587751299851744791 0.18586044043851945862 0.053559404358182717554 0.069484416653100275485 0.017553090927909992258 0.19056985805308940263 -0.14342600399042598758 -0.13323156024895849159 0.048083094613020786745 -0.24625264560868795338 0.03996422477574486376 0.0026116743288102026166 0.0061587286647870826198 0.21303812998995150241 -0.13938199143782889489 0.11666282490043812514 -0.10338767691629811851 0.17893989154156750288 -0.11212769661155323753 0.17602000256774841258 0.25158550486675895774 0.11872648853275835634 0.13081029184789147446 0.017219946794771887055 -0.038426001861239365842 0.13062467143765699173 -0.14174147572810619211 -0.03137412489246687447 -0.18812517412980334086 0.1828876623714189853 0.081246593789214074932 0.066319278034881828932 0.041922687061626565108 -0.0083502479769332858817 -0.12234180982362606593 -0.10302152816379811506 -0.054650572398973029653 